digraph Tree {
node [shape=box, style="filled, rounded", color="black", fontname="helvetica"] ;
edge [fontname="helvetica"] ;
0 [label=<table &le; 57.15<br/>gini = 0.715<br/>samples = 37758<br/>value = [1109, 3376, 15124, 9678, 8471]<br/>class = Good>, fillcolor="#d9faf4"] ;
1 [label=<depth &le; 63.05<br/>gini = 0.492<br/>samples = 20819<br/>value = [438, 1323, 14270, 1177, 3611]<br/>class = Good>, fillcolor="#84efdb"] ;
0 -> 1 [labeldistance=2.5, labelangle=45, headlabel="True"] ;
2 [label=<depth &le; 62.75<br/>gini = 0.356<br/>samples = 18048<br/>value = [22, 102, 14215, 1177, 2532]<br/>class = Good>, fillcolor="#6aebd3"] ;
1 -> 2 ;
3 [label=<depth &le; 60.05<br/>gini = 0.32<br/>samples = 16807<br/>value = [20, 90, 13682, 1038, 1977]<br/>class = Good>, fillcolor="#63ead1"] ;
2 -> 3 ;
4 [label=<depth &le; 58.45<br/>gini = 0.69<br/>samples = 628<br/>value = [12, 47, 230, 101, 238]<br/>class = Fair>, fillcolor="#fefbfe"] ;
3 -> 4 ;
5 [label=<depth &le; 58.05<br/>gini = 0.624<br/>samples = 47<br/>value = [9, 26, 1, 8, 3]<br/>class = Premium>, fillcolor="#c4f3a6"] ;
4 -> 5 ;
6 [label=<depth &le; 55.25<br/>gini = 0.482<br/>samples = 30<br/>value = [8, 20, 1, 0, 1]<br/>class = Premium>, fillcolor="#b7f193"] ;
5 -> 6 ;
7 [label=<x &le; 6.42<br/>gini = 0.444<br/>samples = 3<br/>value = [2, 0, 1, 0, 0]<br/>class = Ideal>, fillcolor="#f2c09c"] ;
6 -> 7 ;
8 [label=<gini = 0.0<br/>samples = 2<br/>value = [2, 0, 0, 0, 0]<br/>class = Ideal>, fillcolor="#e58139"] ;
7 -> 8 ;
9 [label=<gini = 0.0<br/>samples = 1<br/>value = [0, 0, 1, 0, 0]<br/>class = Good>, fillcolor="#39e5c5"] ;
7 -> 9 ;
10 [label=<clarity_VS1 &le; 0.5<br/>gini = 0.401<br/>samples = 27<br/>value = [6, 20, 0, 0, 1]<br/>class = Premium>, fillcolor="#a7ee7b"] ;
6 -> 10 ;
11 [label=<price &le; 3843.0<br/>gini = 0.344<br/>samples = 24<br/>value = [4, 19, 0, 0, 1]<br/>class = Premium>, fillcolor="#9cec6a"] ;
10 -> 11 ;
12 [label=<carat &le; 0.43<br/>gini = 0.124<br/>samples = 15<br/>value = [0, 14, 0, 0, 1]<br/>class = Premium>, fillcolor="#84e747"] ;
11 -> 12 ;
13 [label=<z &le; 2.685<br/>gini = 0.5<br/>samples = 2<br/>value = [0, 1, 0, 0, 1]<br/>class = Premium>, fillcolor="#ffffff"] ;
12 -> 13 ;
14 [label=<gini = 0.0<br/>samples = 1<br/>value = [0, 1, 0, 0, 0]<br/>class = Premium>, fillcolor="#7be539"] ;
13 -> 14 ;
15 [label=<gini = 0.0<br/>samples = 1<br/>value = [0, 0, 0, 0, 1]<br/>class = Fair>, fillcolor="#e539c0"] ;
13 -> 15 ;
16 [label=<gini = 0.0<br/>samples = 13<br/>value = [0, 13, 0, 0, 0]<br/>class = Premium>, fillcolor="#7be539"] ;
12 -> 16 ;
17 [label=<y &le; 6.595<br/>gini = 0.494<br/>samples = 9<br/>value = [4, 5, 0, 0, 0]<br/>class = Premium>, fillcolor="#e5fad7"] ;
11 -> 17 ;
18 [label=<z &le; 3.745<br/>gini = 0.32<br/>samples = 5<br/>value = [4, 1, 0, 0, 0]<br/>class = Ideal>, fillcolor="#eca06a"] ;
17 -> 18 ;
19 [label=<x &le; 6.35<br/>gini = 0.5<br/>samples = 2<br/>value = [1, 1, 0, 0, 0]<br/>class = Ideal>, fillcolor="#ffffff"] ;
18 -> 19 ;
20 [label=<gini = 0.0<br/>samples = 1<br/>value = [1, 0, 0, 0, 0]<br/>class = Ideal>, fillcolor="#e58139"] ;
19 -> 20 ;
21 [label=<gini = 0.0<br/>samples = 1<br/>value = [0, 1, 0, 0, 0]<br/>class = Premium>, fillcolor="#7be539"] ;
19 -> 21 ;
22 [label=<gini = 0.0<br/>samples = 3<br/>value = [3, 0, 0, 0, 0]<br/>class = Ideal>, fillcolor="#e58139"] ;
18 -> 22 ;
23 [label=<gini = 0.0<br/>samples = 4<br/>value = [0, 4, 0, 0, 0]<br/>class = Premium>, fillcolor="#7be539"] ;
17 -> 23 ;
24 [label=<carat &le; 0.54<br/>gini = 0.444<br/>samples = 3<br/>value = [2, 1, 0, 0, 0]<br/>class = Ideal>, fillcolor="#f2c09c"] ;
10 -> 24 ;
25 [label=<gini = 0.0<br/>samples = 1<br/>value = [0, 1, 0, 0, 0]<br/>class = Premium>, fillcolor="#7be539"] ;
24 -> 25 ;
26 [label=<gini = 0.0<br/>samples = 2<br/>value = [2, 0, 0, 0, 0]<br/>class = Ideal>, fillcolor="#e58139"] ;
24 -> 26 ;
27 [label=<clarity_VVS1 &le; 0.5<br/>gini = 0.637<br/>samples = 17<br/>value = [1, 6, 0, 8, 2]<br/>class = Very Good>, fillcolor="#dcdbfa"] ;
5 -> 27 ;
28 [label=<price &le; 598.0<br/>gini = 0.602<br/>samples = 14<br/>value = [1, 3, 0, 8, 2]<br/>class = Very Good>, fillcolor="#a6a5f3"] ;
27 -> 28 ;
29 [label=<gini = 0.0<br/>samples = 1<br/>value = [0, 0, 0, 0, 1]<br/>class = Fair>, fillcolor="#e539c0"] ;
28 -> 29 ;
30 [label=<color_E &le; 0.5<br/>gini = 0.556<br/>samples = 13<br/>value = [1, 3, 0, 8, 1]<br/>class = Very Good>, fillcolor="#9d9cf2"] ;
28 -> 30 ;
31 [label=<clarity_SI2 &le; 0.5<br/>gini = 0.486<br/>samples = 12<br/>value = [1, 3, 0, 8, 0]<br/>class = Very Good>, fillcolor="#9391f1"] ;
30 -> 31 ;
32 [label=<clarity_VVS2 &le; 0.5<br/>gini = 0.37<br/>samples = 9<br/>value = [1, 1, 0, 7, 0]<br/>class = Very Good>, fillcolor="#6d6aec"] ;
31 -> 32 ;
33 [label=<x &le; 5.785<br/>gini = 0.219<br/>samples = 8<br/>value = [1, 0, 0, 7, 0]<br/>class = Very Good>, fillcolor="#5855e9"] ;
32 -> 33 ;
34 [label=<x &le; 5.135<br/>gini = 0.5<br/>samples = 2<br/>value = [1, 0, 0, 1, 0]<br/>class = Ideal>, fillcolor="#ffffff"] ;
33 -> 34 ;
35 [label=<gini = 0.0<br/>samples = 1<br/>value = [0, 0, 0, 1, 0]<br/>class = Very Good>, fillcolor="#3c39e5"] ;
34 -> 35 ;
36 [label=<gini = 0.0<br/>samples = 1<br/>value = [1, 0, 0, 0, 0]<br/>class = Ideal>, fillcolor="#e58139"] ;
34 -> 36 ;
37 [label=<gini = 0.0<br/>samples = 6<br/>value = [0, 0, 0, 6, 0]<br/>class = Very Good>, fillcolor="#3c39e5"] ;
33 -> 37 ;
38 [label=<gini = 0.0<br/>samples = 1<br/>value = [0, 1, 0, 0, 0]<br/>class = Premium>, fillcolor="#7be539"] ;
32 -> 38 ;
39 [label=<price &le; 3090.0<br/>gini = 0.444<br/>samples = 3<br/>value = [0, 2, 0, 1, 0]<br/>class = Premium>, fillcolor="#bdf29c"] ;
31 -> 39 ;
40 [label=<gini = 0.0<br/>samples = 1<br/>value = [0, 0, 0, 1, 0]<br/>class = Very Good>, fillcolor="#3c39e5"] ;
39 -> 40 ;
41 [label=<gini = 0.0<br/>samples = 2<br/>value = [0, 2, 0, 0, 0]<br/>class = Premium>, fillcolor="#7be539"] ;
39 -> 41 ;
42 [label=<gini = 0.0<br/>samples = 1<br/>value = [0, 0, 0, 0, 1]<br/>class = Fair>, fillcolor="#e539c0"] ;
30 -> 42 ;
43 [label=<gini = 0.0<br/>samples = 3<br/>value = [0, 3, 0, 0, 0]<br/>class = Premium>, fillcolor="#7be539"] ;
27 -> 43 ;
44 [label=<x &le; 4.365<br/>gini = 0.654<br/>samples = 581<br/>value = [3, 21, 229, 93, 235]<br/>class = Fair>, fillcolor="#fffcfe"] ;
4 -> 44 ;
45 [label=<z &le; 2.34<br/>gini = 0.14<br/>samples = 27<br/>value = [0, 0, 1, 1, 25]<br/>class = Fair>, fillcolor="#e748c5"] ;
44 -> 45 ;
46 [label=<gini = 0.0<br/>samples = 1<br/>value = [0, 0, 1, 0, 0]<br/>class = Good>, fillcolor="#39e5c5"] ;
45 -> 46 ;
47 [label=<color_D &le; 0.5<br/>gini = 0.074<br/>samples = 26<br/>value = [0, 0, 0, 1, 25]<br/>class = Fair>, fillcolor="#e641c3"] ;
45 -> 47 ;
48 [label=<gini = 0.0<br/>samples = 23<br/>value = [0, 0, 0, 0, 23]<br/>class = Fair>, fillcolor="#e539c0"] ;
47 -> 48 ;
49 [label=<x &le; 4.165<br/>gini = 0.444<br/>samples = 3<br/>value = [0, 0, 0, 1, 2]<br/>class = Fair>, fillcolor="#f29ce0"] ;
47 -> 49 ;
50 [label=<gini = 0.0<br/>samples = 2<br/>value = [0, 0, 0, 0, 2]<br/>class = Fair>, fillcolor="#e539c0"] ;
49 -> 50 ;
51 [label=<gini = 0.0<br/>samples = 1<br/>value = [0, 0, 0, 1, 0]<br/>class = Very Good>, fillcolor="#3c39e5"] ;
49 -> 51 ;
52 [label=<x &le; 5.885<br/>gini = 0.658<br/>samples = 554<br/>value = [3, 21, 228, 92, 210]<br/>class = Good>, fillcolor="#f5fefc"] ;
44 -> 52 ;
53 [label=<y &le; 5.835<br/>gini = 0.609<br/>samples = 284<br/>value = [1, 10, 118, 25, 130]<br/>class = Fair>, fillcolor="#fdf1fa"] ;
52 -> 53 ;
54 [label=<y &le; 4.425<br/>gini = 0.615<br/>samples = 258<br/>value = [1, 9, 116, 25, 107]<br/>class = Good>, fillcolor="#f3fdfc"] ;
53 -> 54 ;
55 [label=<depth &le; 59.4<br/>gini = 0.215<br/>samples = 17<br/>value = [0, 0, 15, 1, 1]<br/>class = Good>, fillcolor="#52e8cc"] ;
54 -> 55 ;
56 [label=<y &le; 4.405<br/>gini = 0.5<br/>samples = 2<br/>value = [0, 0, 0, 1, 1]<br/>class = Very Good>, fillcolor="#ffffff"] ;
55 -> 56 ;
57 [label=<gini = 0.0<br/>samples = 1<br/>value = [0, 0, 0, 1, 0]<br/>class = Very Good>, fillcolor="#3c39e5"] ;
56 -> 57 ;
58 [label=<gini = 0.0<br/>samples = 1<br/>value = [0, 0, 0, 0, 1]<br/>class = Fair>, fillcolor="#e539c0"] ;
56 -> 58 ;
59 [label=<gini = 0.0<br/>samples = 15<br/>value = [0, 0, 15, 0, 0]<br/>class = Good>, fillcolor="#39e5c5"] ;
55 -> 59 ;
60 [label=<x &le; 5.745<br/>gini = 0.62<br/>samples = 241<br/>value = [1, 9, 101, 24, 106]<br/>class = Fair>, fillcolor="#fef8fd"] ;
54 -> 60 ;
61 [label=<price &le; 2003.5<br/>gini = 0.596<br/>samples = 222<br/>value = [0, 5, 92, 20, 105]<br/>class = Fair>, fillcolor="#fcebf9"] ;
60 -> 61 ;
62 [label=<x &le; 5.475<br/>gini = 0.586<br/>samples = 193<br/>value = [0, 3, 89, 16, 85]<br/>class = Good>, fillcolor="#f8fefd"] ;
61 -> 62 ;
63 [label=<y &le; 5.305<br/>gini = 0.577<br/>samples = 184<br/>value = [0, 2, 83, 14, 85]<br/>class = Fair>, fillcolor="#fefbfe"] ;
62 -> 63 ;
64 [label=<x &le; 5.225<br/>gini = 0.585<br/>samples = 149<br/>value = [0, 2, 73, 13, 61]<br/>class = Good>, fillcolor="#e4fbf7"] ;
63 -> 64 ;
65 [label=<clarity_IF &le; 0.5<br/>gini = 0.577<br/>samples = 128<br/>value = [0, 2, 58, 9, 59]<br/>class = Fair>, fillcolor="#fffcfe"] ;
64 -> 65 ;
66 [label=<price &le; 780.0<br/>gini = 0.574<br/>samples = 122<br/>value = [0, 2, 58, 8, 54]<br/>class = Good>, fillcolor="#f3fdfc"] ;
65 -> 66 ;
67 [label=<y &le; 4.735<br/>gini = 0.536<br/>samples = 49<br/>value = [0, 1, 18, 2, 28]<br/>class = Fair>, fillcolor="#f7bfeb"] ;
66 -> 67 ;
68 [label=<depth &le; 59.85<br/>gini = 0.566<br/>samples = 41<br/>value = [0, 1, 18, 2, 20]<br/>class = Fair>, fillcolor="#fdeefa"] ;
67 -> 68 ;
69 [label=<z &le; 2.625<br/>gini = 0.553<br/>samples = 30<br/>value = [0, 1, 16, 1, 12]<br/>class = Good>, fillcolor="#d3f9f2"] ;
68 -> 69 ;
70 [label=<clarity_VS2 &le; 0.5<br/>gini = 0.32<br/>samples = 5<br/>value = [0, 1, 0, 0, 4]<br/>class = Fair>, fillcolor="#ec6ad0"] ;
69 -> 70 ;
71 [label=<gini = 0.0<br/>samples = 4<br/>value = [0, 0, 0, 0, 4]<br/>class = Fair>, fillcolor="#e539c0"] ;
70 -> 71 ;
72 [label=<gini = 0.0<br/>samples = 1<br/>value = [0, 1, 0, 0, 0]<br/>class = Premium>, fillcolor="#7be539"] ;
70 -> 72 ;
73 [label=<table &le; 56.5<br/>gini = 0.486<br/>samples = 25<br/>value = [0, 0, 16, 1, 8]<br/>class = Good>, fillcolor="#a2f3e4"] ;
69 -> 73 ;
74 [label=<color_H &le; 0.5<br/>gini = 0.444<br/>samples = 9<br/>value = [0, 0, 3, 0, 6]<br/>class = Fair>, fillcolor="#f29ce0"] ;
73 -> 74 ;
75 [label=<price &le; 741.0<br/>gini = 0.245<br/>samples = 7<br/>value = [0, 0, 1, 0, 6]<br/>class = Fair>, fillcolor="#e95acb"] ;
74 -> 75 ;
76 [label=<gini = 0.0<br/>samples = 6<br/>value = [0, 0, 0, 0, 6]<br/>class = Fair>, fillcolor="#e539c0"] ;
75 -> 76 ;
77 [label=<gini = 0.0<br/>samples = 1<br/>value = [0, 0, 1, 0, 0]<br/>class = Good>, fillcolor="#39e5c5"] ;
75 -> 77 ;
78 [label=<gini = 0.0<br/>samples = 2<br/>value = [0, 0, 2, 0, 0]<br/>class = Good>, fillcolor="#39e5c5"] ;
74 -> 78 ;
79 [label=<price &le; 749.5<br/>gini = 0.32<br/>samples = 16<br/>value = [0, 0, 13, 1, 2]<br/>class = Good>, fillcolor="#63ebd1"] ;
73 -> 79 ;
80 [label=<y &le; 4.585<br/>gini = 0.231<br/>samples = 15<br/>value = [0, 0, 13, 0, 2]<br/>class = Good>, fillcolor="#57e9ce"] ;
79 -> 80 ;
81 [label=<gini = 0.0<br/>samples = 10<br/>value = [0, 0, 10, 0, 0]<br/>class = Good>, fillcolor="#39e5c5"] ;
80 -> 81 ;
82 [label=<x &le; 4.565<br/>gini = 0.48<br/>samples = 5<br/>value = [0, 0, 3, 0, 2]<br/>class = Good>, fillcolor="#bdf6ec"] ;
80 -> 82 ;
83 [label=<gini = 0.0<br/>samples = 2<br/>value = [0, 0, 0, 0, 2]<br/>class = Fair>, fillcolor="#e539c0"] ;
82 -> 83 ;
84 [label=<gini = 0.0<br/>samples = 3<br/>value = [0, 0, 3, 0, 0]<br/>class = Good>, fillcolor="#39e5c5"] ;
82 -> 84 ;
85 [label=<gini = 0.0<br/>samples = 1<br/>value = [0, 0, 0, 1, 0]<br/>class = Very Good>, fillcolor="#3c39e5"] ;
79 -> 85 ;
86 [label=<carat &le; 0.375<br/>gini = 0.43<br/>samples = 11<br/>value = [0, 0, 2, 1, 8]<br/>class = Fair>, fillcolor="#ee7bd5"] ;
68 -> 86 ;
87 [label=<y &le; 4.435<br/>gini = 0.32<br/>samples = 10<br/>value = [0, 0, 2, 0, 8]<br/>class = Fair>, fillcolor="#ec6ad0"] ;
86 -> 87 ;
88 [label=<gini = 0.0<br/>samples = 1<br/>value = [0, 0, 1, 0, 0]<br/>class = Good>, fillcolor="#39e5c5"] ;
87 -> 88 ;
89 [label=<price &le; 685.5<br/>gini = 0.198<br/>samples = 9<br/>value = [0, 0, 1, 0, 8]<br/>class = Fair>, fillcolor="#e852c8"] ;
87 -> 89 ;
90 [label=<gini = 0.0<br/>samples = 7<br/>value = [0, 0, 0, 0, 7]<br/>class = Fair>, fillcolor="#e539c0"] ;
89 -> 90 ;
91 [label=<z &le; 2.72<br/>gini = 0.5<br/>samples = 2<br/>value = [0, 0, 1, 0, 1]<br/>class = Good>, fillcolor="#ffffff"] ;
89 -> 91 ;
92 [label=<gini = 0.0<br/>samples = 1<br/>value = [0, 0, 0, 0, 1]<br/>class = Fair>, fillcolor="#e539c0"] ;
91 -> 92 ;
93 [label=<gini = 0.0<br/>samples = 1<br/>value = [0, 0, 1, 0, 0]<br/>class = Good>, fillcolor="#39e5c5"] ;
91 -> 93 ;
94 [label=<gini = 0.0<br/>samples = 1<br/>value = [0, 0, 0, 1, 0]<br/>class = Very Good>, fillcolor="#3c39e5"] ;
86 -> 94 ;
95 [label=<gini = 0.0<br/>samples = 8<br/>value = [0, 0, 0, 0, 8]<br/>class = Fair>, fillcolor="#e539c0"] ;
67 -> 95 ;
96 [label=<z &le; 2.925<br/>gini = 0.566<br/>samples = 73<br/>value = [0, 1, 40, 6, 26]<br/>class = Good>, fillcolor="#c4f7ee"] ;
66 -> 96 ;
97 [label=<price &le; 1051.5<br/>gini = 0.482<br/>samples = 49<br/>value = [0, 1, 33, 3, 12]<br/>class = Good>, fillcolor="#8ff0de"] ;
96 -> 97 ;
98 [label=<x &le; 4.825<br/>gini = 0.573<br/>samples = 36<br/>value = [0, 1, 20, 3, 12]<br/>class = Good>, fillcolor="#bdf6ec"] ;
97 -> 98 ;
99 [label=<y &le; 4.635<br/>gini = 0.487<br/>samples = 30<br/>value = [0, 1, 19, 0, 10]<br/>class = Good>, fillcolor="#a6f3e5"] ;
98 -> 99 ;
100 [label=<price &le; 1020.5<br/>gini = 0.357<br/>samples = 14<br/>value = [0, 1, 11, 0, 2]<br/>class = Good>, fillcolor="#6becd4"] ;
99 -> 100 ;
101 [label=<y &le; 4.55<br/>gini = 0.272<br/>samples = 13<br/>value = [0, 1, 11, 0, 1]<br/>class = Good>, fillcolor="#5ae9cf"] ;
100 -> 101 ;
102 [label=<gini = 0.0<br/>samples = 8<br/>value = [0, 0, 8, 0, 0]<br/>class = Good>, fillcolor="#39e5c5"] ;
101 -> 102 ;
103 [label=<x &le; 4.52<br/>gini = 0.56<br/>samples = 5<br/>value = [0, 1, 3, 0, 1]<br/>class = Good>, fillcolor="#9cf2e2"] ;
101 -> 103 ;
104 [label=<gini = 0.0<br/>samples = 1<br/>value = [0, 0, 0, 0, 1]<br/>class = Fair>, fillcolor="#e539c0"] ;
103 -> 104 ;
105 [label=<clarity_VS1 &le; 0.5<br/>gini = 0.375<br/>samples = 4<br/>value = [0, 1, 3, 0, 0]<br/>class = Good>, fillcolor="#7beed8"] ;
103 -> 105 ;
106 [label=<gini = 0.0<br/>samples = 3<br/>value = [0, 0, 3, 0, 0]<br/>class = Good>, fillcolor="#39e5c5"] ;
105 -> 106 ;
107 [label=<gini = 0.0<br/>samples = 1<br/>value = [0, 1, 0, 0, 0]<br/>class = Premium>, fillcolor="#7be539"] ;
105 -> 107 ;
108 [label=<gini = 0.0<br/>samples = 1<br/>value = [0, 0, 0, 0, 1]<br/>class = Fair>, fillcolor="#e539c0"] ;
100 -> 108 ;
109 [label=<color_F &le; 0.5<br/>gini = 0.5<br/>samples = 16<br/>value = [0, 0, 8, 0, 8]<br/>class = Good>, fillcolor="#ffffff"] ;
99 -> 109 ;
110 [label=<price &le; 982.5<br/>gini = 0.473<br/>samples = 13<br/>value = [0, 0, 5, 0, 8]<br/>class = Fair>, fillcolor="#f5b5e7"] ;
109 -> 110 ;
111 [label=<clarity_VS2 &le; 0.5<br/>gini = 0.397<br/>samples = 11<br/>value = [0, 0, 3, 0, 8]<br/>class = Fair>, fillcolor="#ef83d8"] ;
110 -> 111 ;
112 [label=<clarity_VVS2 &le; 0.5<br/>gini = 0.219<br/>samples = 8<br/>value = [0, 0, 1, 0, 7]<br/>class = Fair>, fillcolor="#e955c9"] ;
111 -> 112 ;
113 [label=<gini = 0.0<br/>samples = 6<br/>value = [0, 0, 0, 0, 6]<br/>class = Fair>, fillcolor="#e539c0"] ;
112 -> 113 ;
114 [label=<depth &le; 59.75<br/>gini = 0.5<br/>samples = 2<br/>value = [0, 0, 1, 0, 1]<br/>class = Good>, fillcolor="#ffffff"] ;
112 -> 114 ;
115 [label=<gini = 0.0<br/>samples = 1<br/>value = [0, 0, 0, 0, 1]<br/>class = Fair>, fillcolor="#e539c0"] ;
114 -> 115 ;
116 [label=<gini = 0.0<br/>samples = 1<br/>value = [0, 0, 1, 0, 0]<br/>class = Good>, fillcolor="#39e5c5"] ;
114 -> 116 ;
117 [label=<price &le; 817.5<br/>gini = 0.444<br/>samples = 3<br/>value = [0, 0, 2, 0, 1]<br/>class = Good>, fillcolor="#9cf2e2"] ;
111 -> 117 ;
118 [label=<gini = 0.0<br/>samples = 1<br/>value = [0, 0, 0, 0, 1]<br/>class = Fair>, fillcolor="#e539c0"] ;
117 -> 118 ;
119 [label=<gini = 0.0<br/>samples = 2<br/>value = [0, 0, 2, 0, 0]<br/>class = Good>, fillcolor="#39e5c5"] ;
117 -> 119 ;
120 [label=<gini = 0.0<br/>samples = 2<br/>value = [0, 0, 2, 0, 0]<br/>class = Good>, fillcolor="#39e5c5"] ;
110 -> 120 ;
121 [label=<gini = 0.0<br/>samples = 3<br/>value = [0, 0, 3, 0, 0]<br/>class = Good>, fillcolor="#39e5c5"] ;
109 -> 121 ;
122 [label=<price &le; 973.0<br/>gini = 0.611<br/>samples = 6<br/>value = [0, 0, 1, 3, 2]<br/>class = Very Good>, fillcolor="#cecef8"] ;
98 -> 122 ;
123 [label=<y &le; 4.85<br/>gini = 0.444<br/>samples = 3<br/>value = [0, 0, 1, 0, 2]<br/>class = Fair>, fillcolor="#f29ce0"] ;
122 -> 123 ;
124 [label=<gini = 0.0<br/>samples = 1<br/>value = [0, 0, 1, 0, 0]<br/>class = Good>, fillcolor="#39e5c5"] ;
123 -> 124 ;
125 [label=<gini = 0.0<br/>samples = 2<br/>value = [0, 0, 0, 0, 2]<br/>class = Fair>, fillcolor="#e539c0"] ;
123 -> 125 ;
126 [label=<gini = 0.0<br/>samples = 3<br/>value = [0, 0, 0, 3, 0]<br/>class = Very Good>, fillcolor="#3c39e5"] ;
122 -> 126 ;
127 [label=<gini = 0.0<br/>samples = 13<br/>value = [0, 0, 13, 0, 0]<br/>class = Good>, fillcolor="#39e5c5"] ;
97 -> 127 ;
128 [label=<x &le; 5.085<br/>gini = 0.559<br/>samples = 24<br/>value = [0, 0, 7, 3, 14]<br/>class = Fair>, fillcolor="#f4ade5"] ;
96 -> 128 ;
129 [label=<gini = 0.0<br/>samples = 7<br/>value = [0, 0, 0, 0, 7]<br/>class = Fair>, fillcolor="#e539c0"] ;
128 -> 129 ;
130 [label=<z &le; 3.075<br/>gini = 0.63<br/>samples = 17<br/>value = [0, 0, 7, 3, 7]<br/>class = Good>, fillcolor="#ffffff"] ;
128 -> 130 ;
131 [label=<gini = 0.0<br/>samples = 3<br/>value = [0, 0, 0, 3, 0]<br/>class = Very Good>, fillcolor="#3c39e5"] ;
130 -> 131 ;
132 [label=<price &le; 1151.0<br/>gini = 0.5<br/>samples = 14<br/>value = [0, 0, 7, 0, 7]<br/>class = Good>, fillcolor="#ffffff"] ;
130 -> 132 ;
133 [label=<gini = 0.0<br/>samples = 3<br/>value = [0, 0, 0, 0, 3]<br/>class = Fair>, fillcolor="#e539c0"] ;
132 -> 133 ;
134 [label=<depth &le; 59.65<br/>gini = 0.463<br/>samples = 11<br/>value = [0, 0, 7, 0, 4]<br/>class = Good>, fillcolor="#aaf4e6"] ;
132 -> 134 ;
135 [label=<gini = 0.0<br/>samples = 2<br/>value = [0, 0, 0, 0, 2]<br/>class = Fair>, fillcolor="#e539c0"] ;
134 -> 135 ;
136 [label=<z &le; 3.125<br/>gini = 0.346<br/>samples = 9<br/>value = [0, 0, 7, 0, 2]<br/>class = Good>, fillcolor="#72ecd6"] ;
134 -> 136 ;
137 [label=<gini = 0.0<br/>samples = 5<br/>value = [0, 0, 5, 0, 0]<br/>class = Good>, fillcolor="#39e5c5"] ;
136 -> 137 ;
138 [label=<clarity_SI1 &le; 0.5<br/>gini = 0.5<br/>samples = 4<br/>value = [0, 0, 2, 0, 2]<br/>class = Good>, fillcolor="#ffffff"] ;
136 -> 138 ;
139 [label=<gini = 0.0<br/>samples = 2<br/>value = [0, 0, 0, 0, 2]<br/>class = Fair>, fillcolor="#e539c0"] ;
138 -> 139 ;
140 [label=<gini = 0.0<br/>samples = 2<br/>value = [0, 0, 2, 0, 0]<br/>class = Good>, fillcolor="#39e5c5"] ;
138 -> 140 ;
141 [label=<depth &le; 59.75<br/>gini = 0.278<br/>samples = 6<br/>value = [0, 0, 0, 1, 5]<br/>class = Fair>, fillcolor="#ea61cd"] ;
65 -> 141 ;
142 [label=<gini = 0.0<br/>samples = 5<br/>value = [0, 0, 0, 0, 5]<br/>class = Fair>, fillcolor="#e539c0"] ;
141 -> 142 ;
143 [label=<gini = 0.0<br/>samples = 1<br/>value = [0, 0, 0, 1, 0]<br/>class = Very Good>, fillcolor="#3c39e5"] ;
141 -> 143 ;
144 [label=<z &le; 3.185<br/>gini = 0.444<br/>samples = 21<br/>value = [0, 0, 15, 4, 2]<br/>class = Good>, fillcolor="#7feed9"] ;
64 -> 144 ;
145 [label=<price &le; 1016.0<br/>gini = 0.395<br/>samples = 20<br/>value = [0, 0, 15, 4, 1]<br/>class = Good>, fillcolor="#77edd7"] ;
144 -> 145 ;
146 [label=<gini = 0.0<br/>samples = 1<br/>value = [0, 0, 0, 1, 0]<br/>class = Very Good>, fillcolor="#3c39e5"] ;
145 -> 146 ;
147 [label=<depth &le; 59.55<br/>gini = 0.349<br/>samples = 19<br/>value = [0, 0, 15, 3, 1]<br/>class = Good>, fillcolor="#6aecd4"] ;
145 -> 147 ;
148 [label=<price &le; 1737.5<br/>gini = 0.5<br/>samples = 4<br/>value = [0, 0, 2, 2, 0]<br/>class = Good>, fillcolor="#ffffff"] ;
147 -> 148 ;
149 [label=<gini = 0.0<br/>samples = 2<br/>value = [0, 0, 2, 0, 0]<br/>class = Good>, fillcolor="#39e5c5"] ;
148 -> 149 ;
150 [label=<gini = 0.0<br/>samples = 2<br/>value = [0, 0, 0, 2, 0]<br/>class = Very Good>, fillcolor="#3c39e5"] ;
148 -> 150 ;
151 [label=<price &le; 1306.5<br/>gini = 0.24<br/>samples = 15<br/>value = [0, 0, 13, 1, 1]<br/>class = Good>, fillcolor="#55e9cd"] ;
147 -> 151 ;
152 [label=<depth &le; 59.95<br/>gini = 0.5<br/>samples = 2<br/>value = [0, 0, 1, 0, 1]<br/>class = Good>, fillcolor="#ffffff"] ;
151 -> 152 ;
153 [label=<gini = 0.0<br/>samples = 1<br/>value = [0, 0, 1, 0, 0]<br/>class = Good>, fillcolor="#39e5c5"] ;
152 -> 153 ;
154 [label=<gini = 0.0<br/>samples = 1<br/>value = [0, 0, 0, 0, 1]<br/>class = Fair>, fillcolor="#e539c0"] ;
152 -> 154 ;
155 [label=<clarity_VS2 &le; 0.5<br/>gini = 0.142<br/>samples = 13<br/>value = [0, 0, 12, 1, 0]<br/>class = Good>, fillcolor="#49e7ca"] ;
151 -> 155 ;
156 [label=<gini = 0.0<br/>samples = 10<br/>value = [0, 0, 10, 0, 0]<br/>class = Good>, fillcolor="#39e5c5"] ;
155 -> 156 ;
157 [label=<z &le; 3.15<br/>gini = 0.444<br/>samples = 3<br/>value = [0, 0, 2, 1, 0]<br/>class = Good>, fillcolor="#9cf2e2"] ;
155 -> 157 ;
158 [label=<gini = 0.0<br/>samples = 1<br/>value = [0, 0, 0, 1, 0]<br/>class = Very Good>, fillcolor="#3c39e5"] ;
157 -> 158 ;
159 [label=<gini = 0.0<br/>samples = 2<br/>value = [0, 0, 2, 0, 0]<br/>class = Good>, fillcolor="#39e5c5"] ;
157 -> 159 ;
160 [label=<gini = 0.0<br/>samples = 1<br/>value = [0, 0, 0, 0, 1]<br/>class = Fair>, fillcolor="#e539c0"] ;
144 -> 160 ;
161 [label=<clarity_VS2 &le; 0.5<br/>gini = 0.447<br/>samples = 35<br/>value = [0, 0, 10, 1, 24]<br/>class = Fair>, fillcolor="#f090dc"] ;
63 -> 161 ;
162 [label=<price &le; 1938.0<br/>gini = 0.335<br/>samples = 20<br/>value = [0, 0, 3, 1, 16]<br/>class = Fair>, fillcolor="#eb68cf"] ;
161 -> 162 ;
163 [label=<x &le; 5.465<br/>gini = 0.204<br/>samples = 18<br/>value = [0, 0, 1, 1, 16]<br/>class = Fair>, fillcolor="#e850c7"] ;
162 -> 163 ;
164 [label=<x &le; 5.445<br/>gini = 0.111<br/>samples = 17<br/>value = [0, 0, 1, 0, 16]<br/>class = Fair>, fillcolor="#e745c4"] ;
163 -> 164 ;
165 [label=<gini = 0.0<br/>samples = 15<br/>value = [0, 0, 0, 0, 15]<br/>class = Fair>, fillcolor="#e539c0"] ;
164 -> 165 ;
166 [label=<color_D &le; 0.5<br/>gini = 0.5<br/>samples = 2<br/>value = [0, 0, 1, 0, 1]<br/>class = Good>, fillcolor="#ffffff"] ;
164 -> 166 ;
167 [label=<gini = 0.0<br/>samples = 1<br/>value = [0, 0, 1, 0, 0]<br/>class = Good>, fillcolor="#39e5c5"] ;
166 -> 167 ;
168 [label=<gini = 0.0<br/>samples = 1<br/>value = [0, 0, 0, 0, 1]<br/>class = Fair>, fillcolor="#e539c0"] ;
166 -> 168 ;
169 [label=<gini = 0.0<br/>samples = 1<br/>value = [0, 0, 0, 1, 0]<br/>class = Very Good>, fillcolor="#3c39e5"] ;
163 -> 169 ;
170 [label=<gini = 0.0<br/>samples = 2<br/>value = [0, 0, 2, 0, 0]<br/>class = Good>, fillcolor="#39e5c5"] ;
162 -> 170 ;
171 [label=<price &le; 1802.5<br/>gini = 0.498<br/>samples = 15<br/>value = [0, 0, 7, 0, 8]<br/>class = Fair>, fillcolor="#fce6f7"] ;
161 -> 171 ;
172 [label=<carat &le; 0.545<br/>gini = 0.486<br/>samples = 12<br/>value = [0, 0, 7, 0, 5]<br/>class = Good>, fillcolor="#c6f8ee"] ;
171 -> 172 ;
173 [label=<gini = 0.0<br/>samples = 2<br/>value = [0, 0, 0, 0, 2]<br/>class = Fair>, fillcolor="#e539c0"] ;
172 -> 173 ;
174 [label=<z &le; 3.215<br/>gini = 0.42<br/>samples = 10<br/>value = [0, 0, 7, 0, 3]<br/>class = Good>, fillcolor="#8ef0de"] ;
172 -> 174 ;
175 [label=<gini = 0.0<br/>samples = 4<br/>value = [0, 0, 4, 0, 0]<br/>class = Good>, fillcolor="#39e5c5"] ;
174 -> 175 ;
176 [label=<price &le; 1635.0<br/>gini = 0.5<br/>samples = 6<br/>value = [0, 0, 3, 0, 3]<br/>class = Good>, fillcolor="#ffffff"] ;
174 -> 176 ;
177 [label=<gini = 0.0<br/>samples = 2<br/>value = [0, 0, 0, 0, 2]<br/>class = Fair>, fillcolor="#e539c0"] ;
176 -> 177 ;
178 [label=<price &le; 1746.5<br/>gini = 0.375<br/>samples = 4<br/>value = [0, 0, 3, 0, 1]<br/>class = Good>, fillcolor="#7beed8"] ;
176 -> 178 ;
179 [label=<gini = 0.0<br/>samples = 2<br/>value = [0, 0, 2, 0, 0]<br/>class = Good>, fillcolor="#39e5c5"] ;
178 -> 179 ;
180 [label=<table &le; 56.5<br/>gini = 0.5<br/>samples = 2<br/>value = [0, 0, 1, 0, 1]<br/>class = Good>, fillcolor="#ffffff"] ;
178 -> 180 ;
181 [label=<gini = 0.0<br/>samples = 1<br/>value = [0, 0, 1, 0, 0]<br/>class = Good>, fillcolor="#39e5c5"] ;
180 -> 181 ;
182 [label=<gini = 0.0<br/>samples = 1<br/>value = [0, 0, 0, 0, 1]<br/>class = Fair>, fillcolor="#e539c0"] ;
180 -> 182 ;
183 [label=<gini = 0.0<br/>samples = 3<br/>value = [0, 0, 0, 0, 3]<br/>class = Fair>, fillcolor="#e539c0"] ;
171 -> 183 ;
184 [label=<y &le; 5.425<br/>gini = 0.494<br/>samples = 9<br/>value = [0, 1, 6, 2, 0]<br/>class = Good>, fillcolor="#8ef0de"] ;
62 -> 184 ;
185 [label=<gini = 0.0<br/>samples = 2<br/>value = [0, 0, 0, 2, 0]<br/>class = Very Good>, fillcolor="#3c39e5"] ;
184 -> 185 ;
186 [label=<clarity_VVS2 &le; 0.5<br/>gini = 0.245<br/>samples = 7<br/>value = [0, 1, 6, 0, 0]<br/>class = Good>, fillcolor="#5ae9cf"] ;
184 -> 186 ;
187 [label=<gini = 0.0<br/>samples = 6<br/>value = [0, 0, 6, 0, 0]<br/>class = Good>, fillcolor="#39e5c5"] ;
186 -> 187 ;
188 [label=<gini = 0.0<br/>samples = 1<br/>value = [0, 1, 0, 0, 0]<br/>class = Premium>, fillcolor="#7be539"] ;
186 -> 188 ;
189 [label=<y &le; 5.48<br/>gini = 0.49<br/>samples = 29<br/>value = [0, 2, 3, 4, 20]<br/>class = Fair>, fillcolor="#ee80d7"] ;
61 -> 189 ;
190 [label=<x &le; 5.37<br/>gini = 0.656<br/>samples = 16<br/>value = [0, 2, 2, 4, 8]<br/>class = Fair>, fillcolor="#f6bdea"] ;
189 -> 190 ;
191 [label=<price &le; 2250.5<br/>gini = 0.529<br/>samples = 11<br/>value = [0, 2, 2, 0, 7]<br/>class = Fair>, fillcolor="#f191dc"] ;
190 -> 191 ;
192 [label=<y &le; 5.275<br/>gini = 0.625<br/>samples = 4<br/>value = [0, 2, 1, 0, 1]<br/>class = Premium>, fillcolor="#d3f6bd"] ;
191 -> 192 ;
193 [label=<gini = 0.0<br/>samples = 2<br/>value = [0, 2, 0, 0, 0]<br/>class = Premium>, fillcolor="#7be539"] ;
192 -> 193 ;
194 [label=<z &le; 3.135<br/>gini = 0.5<br/>samples = 2<br/>value = [0, 0, 1, 0, 1]<br/>class = Good>, fillcolor="#ffffff"] ;
192 -> 194 ;
195 [label=<gini = 0.0<br/>samples = 1<br/>value = [0, 0, 0, 0, 1]<br/>class = Fair>, fillcolor="#e539c0"] ;
194 -> 195 ;
196 [label=<gini = 0.0<br/>samples = 1<br/>value = [0, 0, 1, 0, 0]<br/>class = Good>, fillcolor="#39e5c5"] ;
194 -> 196 ;
197 [label=<color_E &le; 0.5<br/>gini = 0.245<br/>samples = 7<br/>value = [0, 0, 1, 0, 6]<br/>class = Fair>, fillcolor="#e95acb"] ;
191 -> 197 ;
198 [label=<gini = 0.0<br/>samples = 5<br/>value = [0, 0, 0, 0, 5]<br/>class = Fair>, fillcolor="#e539c0"] ;
197 -> 198 ;
199 [label=<price &le; 2484.0<br/>gini = 0.5<br/>samples = 2<br/>value = [0, 0, 1, 0, 1]<br/>class = Good>, fillcolor="#ffffff"] ;
197 -> 199 ;
200 [label=<gini = 0.0<br/>samples = 1<br/>value = [0, 0, 1, 0, 0]<br/>class = Good>, fillcolor="#39e5c5"] ;
199 -> 200 ;
201 [label=<gini = 0.0<br/>samples = 1<br/>value = [0, 0, 0, 0, 1]<br/>class = Fair>, fillcolor="#e539c0"] ;
199 -> 201 ;
202 [label=<color_F &le; 0.5<br/>gini = 0.32<br/>samples = 5<br/>value = [0, 0, 0, 4, 1]<br/>class = Very Good>, fillcolor="#6d6aec"] ;
190 -> 202 ;
203 [label=<gini = 0.0<br/>samples = 4<br/>value = [0, 0, 0, 4, 0]<br/>class = Very Good>, fillcolor="#3c39e5"] ;
202 -> 203 ;
204 [label=<gini = 0.0<br/>samples = 1<br/>value = [0, 0, 0, 0, 1]<br/>class = Fair>, fillcolor="#e539c0"] ;
202 -> 204 ;
205 [label=<clarity_VS2 &le; 0.5<br/>gini = 0.142<br/>samples = 13<br/>value = [0, 0, 1, 0, 12]<br/>class = Fair>, fillcolor="#e749c5"] ;
189 -> 205 ;
206 [label=<gini = 0.0<br/>samples = 9<br/>value = [0, 0, 0, 0, 9]<br/>class = Fair>, fillcolor="#e539c0"] ;
205 -> 206 ;
207 [label=<z &le; 3.315<br/>gini = 0.375<br/>samples = 4<br/>value = [0, 0, 1, 0, 3]<br/>class = Fair>, fillcolor="#ee7bd5"] ;
205 -> 207 ;
208 [label=<gini = 0.0<br/>samples = 1<br/>value = [0, 0, 1, 0, 0]<br/>class = Good>, fillcolor="#39e5c5"] ;
207 -> 208 ;
209 [label=<gini = 0.0<br/>samples = 3<br/>value = [0, 0, 0, 0, 3]<br/>class = Fair>, fillcolor="#e539c0"] ;
207 -> 209 ;
210 [label=<carat &le; 0.705<br/>gini = 0.681<br/>samples = 19<br/>value = [1, 4, 9, 4, 1]<br/>class = Good>, fillcolor="#bdf6ec"] ;
60 -> 210 ;
211 [label=<y &le; 5.795<br/>gini = 0.744<br/>samples = 11<br/>value = [1, 4, 2, 3, 1]<br/>class = Premium>, fillcolor="#eefce6"] ;
210 -> 211 ;
212 [label=<color_G &le; 0.5<br/>gini = 0.694<br/>samples = 7<br/>value = [1, 0, 2, 3, 1]<br/>class = Very Good>, fillcolor="#d8d7fa"] ;
211 -> 212 ;
213 [label=<clarity_VS1 &le; 0.5<br/>gini = 0.611<br/>samples = 6<br/>value = [0, 0, 2, 3, 1]<br/>class = Very Good>, fillcolor="#cecef8"] ;
212 -> 213 ;
214 [label=<table &le; 55.5<br/>gini = 0.48<br/>samples = 5<br/>value = [0, 0, 2, 3, 0]<br/>class = Very Good>, fillcolor="#bebdf6"] ;
213 -> 214 ;
215 [label=<gini = 0.0<br/>samples = 1<br/>value = [0, 0, 1, 0, 0]<br/>class = Good>, fillcolor="#39e5c5"] ;
214 -> 215 ;
216 [label=<color_H &le; 0.5<br/>gini = 0.375<br/>samples = 4<br/>value = [0, 0, 1, 3, 0]<br/>class = Very Good>, fillcolor="#7d7bee"] ;
214 -> 216 ;
217 [label=<gini = 0.0<br/>samples = 3<br/>value = [0, 0, 0, 3, 0]<br/>class = Very Good>, fillcolor="#3c39e5"] ;
216 -> 217 ;
218 [label=<gini = 0.0<br/>samples = 1<br/>value = [0, 0, 1, 0, 0]<br/>class = Good>, fillcolor="#39e5c5"] ;
216 -> 218 ;
219 [label=<gini = 0.0<br/>samples = 1<br/>value = [0, 0, 0, 0, 1]<br/>class = Fair>, fillcolor="#e539c0"] ;
213 -> 219 ;
220 [label=<gini = 0.0<br/>samples = 1<br/>value = [1, 0, 0, 0, 0]<br/>class = Ideal>, fillcolor="#e58139"] ;
212 -> 220 ;
221 [label=<gini = 0.0<br/>samples = 4<br/>value = [0, 4, 0, 0, 0]<br/>class = Premium>, fillcolor="#7be539"] ;
211 -> 221 ;
222 [label=<depth &le; 59.35<br/>gini = 0.219<br/>samples = 8<br/>value = [0, 0, 7, 1, 0]<br/>class = Good>, fillcolor="#55e9cd"] ;
210 -> 222 ;
223 [label=<gini = 0.0<br/>samples = 1<br/>value = [0, 0, 0, 1, 0]<br/>class = Very Good>, fillcolor="#3c39e5"] ;
222 -> 223 ;
224 [label=<gini = 0.0<br/>samples = 7<br/>value = [0, 0, 7, 0, 0]<br/>class = Good>, fillcolor="#39e5c5"] ;
222 -> 224 ;
225 [label=<y &le; 5.855<br/>gini = 0.21<br/>samples = 26<br/>value = [0, 1, 2, 0, 23]<br/>class = Fair>, fillcolor="#e852c8"] ;
53 -> 225 ;
226 [label=<z &le; 3.44<br/>gini = 0.5<br/>samples = 2<br/>value = [0, 1, 0, 0, 1]<br/>class = Premium>, fillcolor="#ffffff"] ;
225 -> 226 ;
227 [label=<gini = 0.0<br/>samples = 1<br/>value = [0, 0, 0, 0, 1]<br/>class = Fair>, fillcolor="#e539c0"] ;
226 -> 227 ;
228 [label=<gini = 0.0<br/>samples = 1<br/>value = [0, 1, 0, 0, 0]<br/>class = Premium>, fillcolor="#7be539"] ;
226 -> 228 ;
229 [label=<color_E &le; 0.5<br/>gini = 0.153<br/>samples = 24<br/>value = [0, 0, 2, 0, 22]<br/>class = Fair>, fillcolor="#e74bc6"] ;
225 -> 229 ;
230 [label=<gini = 0.0<br/>samples = 16<br/>value = [0, 0, 0, 0, 16]<br/>class = Fair>, fillcolor="#e539c0"] ;
229 -> 230 ;
231 [label=<price &le; 2312.0<br/>gini = 0.375<br/>samples = 8<br/>value = [0, 0, 2, 0, 6]<br/>class = Fair>, fillcolor="#ee7bd5"] ;
229 -> 231 ;
232 [label=<gini = 0.0<br/>samples = 1<br/>value = [0, 0, 1, 0, 0]<br/>class = Good>, fillcolor="#39e5c5"] ;
231 -> 232 ;
233 [label=<y &le; 5.875<br/>gini = 0.245<br/>samples = 7<br/>value = [0, 0, 1, 0, 6]<br/>class = Fair>, fillcolor="#e95acb"] ;
231 -> 233 ;
234 [label=<gini = 0.0<br/>samples = 1<br/>value = [0, 0, 1, 0, 0]<br/>class = Good>, fillcolor="#39e5c5"] ;
233 -> 234 ;
235 [label=<gini = 0.0<br/>samples = 6<br/>value = [0, 0, 0, 0, 6]<br/>class = Fair>, fillcolor="#e539c0"] ;
233 -> 235 ;
236 [label=<price &le; 2954.5<br/>gini = 0.683<br/>samples = 270<br/>value = [2, 11, 110, 67, 80]<br/>class = Good>, fillcolor="#e0fbf6"] ;
52 -> 236 ;
237 [label=<price &le; 1974.5<br/>gini = 0.522<br/>samples = 31<br/>value = [1, 0, 7, 20, 3]<br/>class = Very Good>, fillcolor="#9594f1"] ;
236 -> 237 ;
238 [label=<gini = 0.0<br/>samples = 1<br/>value = [1, 0, 0, 0, 0]<br/>class = Ideal>, fillcolor="#e58139"] ;
237 -> 238 ;
239 [label=<price &le; 2375.0<br/>gini = 0.491<br/>samples = 30<br/>value = [0, 0, 7, 20, 3]<br/>class = Very Good>, fillcolor="#918ff0"] ;
237 -> 239 ;
240 [label=<gini = 0.0<br/>samples = 7<br/>value = [0, 0, 0, 7, 0]<br/>class = Very Good>, fillcolor="#3c39e5"] ;
239 -> 240 ;
241 [label=<price &le; 2436.0<br/>gini = 0.571<br/>samples = 23<br/>value = [0, 0, 7, 13, 3]<br/>class = Very Good>, fillcolor="#b6b5f5"] ;
239 -> 241 ;
242 [label=<gini = 0.0<br/>samples = 4<br/>value = [0, 0, 4, 0, 0]<br/>class = Good>, fillcolor="#39e5c5"] ;
241 -> 242 ;
243 [label=<y &le; 5.99<br/>gini = 0.482<br/>samples = 19<br/>value = [0, 0, 3, 13, 3]<br/>class = Very Good>, fillcolor="#8583ef"] ;
241 -> 243 ;
244 [label=<color_I &le; 0.5<br/>gini = 0.278<br/>samples = 12<br/>value = [0, 0, 2, 10, 0]<br/>class = Very Good>, fillcolor="#6361ea"] ;
243 -> 244 ;
245 [label=<color_F &le; 0.5<br/>gini = 0.165<br/>samples = 11<br/>value = [0, 0, 1, 10, 0]<br/>class = Very Good>, fillcolor="#504de8"] ;
244 -> 245 ;
246 [label=<gini = 0.0<br/>samples = 9<br/>value = [0, 0, 0, 9, 0]<br/>class = Very Good>, fillcolor="#3c39e5"] ;
245 -> 246 ;
247 [label=<z &le; 3.495<br/>gini = 0.5<br/>samples = 2<br/>value = [0, 0, 1, 1, 0]<br/>class = Good>, fillcolor="#ffffff"] ;
245 -> 247 ;
248 [label=<gini = 0.0<br/>samples = 1<br/>value = [0, 0, 0, 1, 0]<br/>class = Very Good>, fillcolor="#3c39e5"] ;
247 -> 248 ;
249 [label=<gini = 0.0<br/>samples = 1<br/>value = [0, 0, 1, 0, 0]<br/>class = Good>, fillcolor="#39e5c5"] ;
247 -> 249 ;
250 [label=<gini = 0.0<br/>samples = 1<br/>value = [0, 0, 1, 0, 0]<br/>class = Good>, fillcolor="#39e5c5"] ;
244 -> 250 ;
251 [label=<x &le; 6.13<br/>gini = 0.612<br/>samples = 7<br/>value = [0, 0, 1, 3, 3]<br/>class = Very Good>, fillcolor="#ffffff"] ;
243 -> 251 ;
252 [label=<price &le; 2855.5<br/>gini = 0.375<br/>samples = 4<br/>value = [0, 0, 1, 0, 3]<br/>class = Fair>, fillcolor="#ee7bd5"] ;
251 -> 252 ;
253 [label=<gini = 0.0<br/>samples = 3<br/>value = [0, 0, 0, 0, 3]<br/>class = Fair>, fillcolor="#e539c0"] ;
252 -> 253 ;
254 [label=<gini = 0.0<br/>samples = 1<br/>value = [0, 0, 1, 0, 0]<br/>class = Good>, fillcolor="#39e5c5"] ;
252 -> 254 ;
255 [label=<gini = 0.0<br/>samples = 3<br/>value = [0, 0, 0, 3, 0]<br/>class = Very Good>, fillcolor="#3c39e5"] ;
251 -> 255 ;
256 [label=<color_J &le; 0.5<br/>gini = 0.67<br/>samples = 239<br/>value = [1, 11, 103, 47, 77]<br/>class = Good>, fillcolor="#dffbf6"] ;
236 -> 256 ;
257 [label=<x &le; 6.335<br/>gini = 0.659<br/>samples = 227<br/>value = [1, 9, 101, 41, 75]<br/>class = Good>, fillcolor="#ddfbf5"] ;
256 -> 257 ;
258 [label=<color_E &le; 0.5<br/>gini = 0.597<br/>samples = 23<br/>value = [0, 2, 6, 2, 13]<br/>class = Fair>, fillcolor="#f4ade5"] ;
257 -> 258 ;
259 [label=<depth &le; 59.45<br/>gini = 0.436<br/>samples = 15<br/>value = [0, 1, 1, 2, 11]<br/>class = Fair>, fillcolor="#ed76d3"] ;
258 -> 259 ;
260 [label=<z &le; 3.565<br/>gini = 0.75<br/>samples = 4<br/>value = [0, 1, 1, 1, 1]<br/>class = Premium>, fillcolor="#ffffff"] ;
259 -> 260 ;
261 [label=<gini = 0.0<br/>samples = 1<br/>value = [0, 1, 0, 0, 0]<br/>class = Premium>, fillcolor="#7be539"] ;
260 -> 261 ;
262 [label=<clarity_SI1 &le; 0.5<br/>gini = 0.667<br/>samples = 3<br/>value = [0, 0, 1, 1, 1]<br/>class = Good>, fillcolor="#ffffff"] ;
260 -> 262 ;
263 [label=<carat &le; 0.775<br/>gini = 0.5<br/>samples = 2<br/>value = [0, 0, 1, 0, 1]<br/>class = Good>, fillcolor="#ffffff"] ;
262 -> 263 ;
264 [label=<gini = 0.0<br/>samples = 1<br/>value = [0, 0, 1, 0, 0]<br/>class = Good>, fillcolor="#39e5c5"] ;
263 -> 264 ;
265 [label=<gini = 0.0<br/>samples = 1<br/>value = [0, 0, 0, 0, 1]<br/>class = Fair>, fillcolor="#e539c0"] ;
263 -> 265 ;
266 [label=<gini = 0.0<br/>samples = 1<br/>value = [0, 0, 0, 1, 0]<br/>class = Very Good>, fillcolor="#3c39e5"] ;
262 -> 266 ;
267 [label=<color_H &le; 0.5<br/>gini = 0.165<br/>samples = 11<br/>value = [0, 0, 0, 1, 10]<br/>class = Fair>, fillcolor="#e84dc6"] ;
259 -> 267 ;
268 [label=<gini = 0.0<br/>samples = 9<br/>value = [0, 0, 0, 0, 9]<br/>class = Fair>, fillcolor="#e539c0"] ;
267 -> 268 ;
269 [label=<price &le; 3942.0<br/>gini = 0.5<br/>samples = 2<br/>value = [0, 0, 0, 1, 1]<br/>class = Very Good>, fillcolor="#ffffff"] ;
267 -> 269 ;
270 [label=<gini = 0.0<br/>samples = 1<br/>value = [0, 0, 0, 1, 0]<br/>class = Very Good>, fillcolor="#3c39e5"] ;
269 -> 270 ;
271 [label=<gini = 0.0<br/>samples = 1<br/>value = [0, 0, 0, 0, 1]<br/>class = Fair>, fillcolor="#e539c0"] ;
269 -> 271 ;
272 [label=<price &le; 4106.0<br/>gini = 0.531<br/>samples = 8<br/>value = [0, 1, 5, 0, 2]<br/>class = Good>, fillcolor="#9cf2e2"] ;
258 -> 272 ;
273 [label=<gini = 0.0<br/>samples = 5<br/>value = [0, 0, 5, 0, 0]<br/>class = Good>, fillcolor="#39e5c5"] ;
272 -> 273 ;
274 [label=<z &le; 3.75<br/>gini = 0.444<br/>samples = 3<br/>value = [0, 1, 0, 0, 2]<br/>class = Fair>, fillcolor="#f29ce0"] ;
272 -> 274 ;
275 [label=<gini = 0.0<br/>samples = 1<br/>value = [0, 1, 0, 0, 0]<br/>class = Premium>, fillcolor="#7be539"] ;
274 -> 275 ;
276 [label=<gini = 0.0<br/>samples = 2<br/>value = [0, 0, 0, 0, 2]<br/>class = Fair>, fillcolor="#e539c0"] ;
274 -> 276 ;
277 [label=<y &le; 6.555<br/>gini = 0.653<br/>samples = 204<br/>value = [1, 7, 95, 39, 62]<br/>class = Good>, fillcolor="#d1f9f2"] ;
257 -> 277 ;
278 [label=<price &le; 6553.5<br/>gini = 0.535<br/>samples = 27<br/>value = [1, 1, 16, 9, 0]<br/>class = Good>, fillcolor="#b2f5e8"] ;
277 -> 278 ;
279 [label=<color_I &le; 0.5<br/>gini = 0.585<br/>samples = 21<br/>value = [1, 1, 10, 9, 0]<br/>class = Good>, fillcolor="#eefdfa"] ;
278 -> 279 ;
280 [label=<table &le; 56.5<br/>gini = 0.578<br/>samples = 16<br/>value = [1, 1, 5, 9, 0]<br/>class = Very Good>, fillcolor="#b8b7f6"] ;
279 -> 280 ;
281 [label=<depth &le; 59.85<br/>gini = 0.219<br/>samples = 8<br/>value = [0, 0, 1, 7, 0]<br/>class = Very Good>, fillcolor="#5855e9"] ;
280 -> 281 ;
282 [label=<gini = 0.0<br/>samples = 7<br/>value = [0, 0, 0, 7, 0]<br/>class = Very Good>, fillcolor="#3c39e5"] ;
281 -> 282 ;
283 [label=<gini = 0.0<br/>samples = 1<br/>value = [0, 0, 1, 0, 0]<br/>class = Good>, fillcolor="#39e5c5"] ;
281 -> 283 ;
284 [label=<z &le; 3.865<br/>gini = 0.656<br/>samples = 8<br/>value = [1, 1, 4, 2, 0]<br/>class = Good>, fillcolor="#bdf6ec"] ;
280 -> 284 ;
285 [label=<y &le; 6.445<br/>gini = 0.375<br/>samples = 4<br/>value = [0, 1, 3, 0, 0]<br/>class = Good>, fillcolor="#7beed8"] ;
284 -> 285 ;
286 [label=<gini = 0.0<br/>samples = 3<br/>value = [0, 0, 3, 0, 0]<br/>class = Good>, fillcolor="#39e5c5"] ;
285 -> 286 ;
287 [label=<gini = 0.0<br/>samples = 1<br/>value = [0, 1, 0, 0, 0]<br/>class = Premium>, fillcolor="#7be539"] ;
285 -> 287 ;
288 [label=<price &le; 4860.0<br/>gini = 0.625<br/>samples = 4<br/>value = [1, 0, 1, 2, 0]<br/>class = Very Good>, fillcolor="#bebdf6"] ;
284 -> 288 ;
289 [label=<x &le; 6.63<br/>gini = 0.5<br/>samples = 2<br/>value = [1, 0, 1, 0, 0]<br/>class = Ideal>, fillcolor="#ffffff"] ;
288 -> 289 ;
290 [label=<gini = 0.0<br/>samples = 1<br/>value = [0, 0, 1, 0, 0]<br/>class = Good>, fillcolor="#39e5c5"] ;
289 -> 290 ;
291 [label=<gini = 0.0<br/>samples = 1<br/>value = [1, 0, 0, 0, 0]<br/>class = Ideal>, fillcolor="#e58139"] ;
289 -> 291 ;
292 [label=<gini = 0.0<br/>samples = 2<br/>value = [0, 0, 0, 2, 0]<br/>class = Very Good>, fillcolor="#3c39e5"] ;
288 -> 292 ;
293 [label=<gini = 0.0<br/>samples = 5<br/>value = [0, 0, 5, 0, 0]<br/>class = Good>, fillcolor="#39e5c5"] ;
279 -> 293 ;
294 [label=<gini = 0.0<br/>samples = 6<br/>value = [0, 0, 6, 0, 0]<br/>class = Good>, fillcolor="#39e5c5"] ;
278 -> 294 ;
295 [label=<x &le; 6.58<br/>gini = 0.648<br/>samples = 177<br/>value = [0, 6, 79, 30, 62]<br/>class = Good>, fillcolor="#e2fbf6"] ;
277 -> 295 ;
296 [label=<carat &le; 1.025<br/>gini = 0.272<br/>samples = 13<br/>value = [0, 1, 1, 0, 11]<br/>class = Fair>, fillcolor="#e95acb"] ;
295 -> 296 ;
297 [label=<price &le; 4169.5<br/>gini = 0.153<br/>samples = 12<br/>value = [0, 0, 1, 0, 11]<br/>class = Fair>, fillcolor="#e74bc6"] ;
296 -> 297 ;
298 [label=<gini = 0.0<br/>samples = 1<br/>value = [0, 0, 1, 0, 0]<br/>class = Good>, fillcolor="#39e5c5"] ;
297 -> 298 ;
299 [label=<gini = 0.0<br/>samples = 11<br/>value = [0, 0, 0, 0, 11]<br/>class = Fair>, fillcolor="#e539c0"] ;
297 -> 299 ;
300 [label=<gini = 0.0<br/>samples = 1<br/>value = [0, 1, 0, 0, 0]<br/>class = Premium>, fillcolor="#7be539"] ;
296 -> 300 ;
301 [label=<y &le; 6.655<br/>gini = 0.643<br/>samples = 164<br/>value = [0, 5, 78, 30, 51]<br/>class = Good>, fillcolor="#d0f9f1"] ;
295 -> 301 ;
302 [label=<price &le; 5616.5<br/>gini = 0.359<br/>samples = 27<br/>value = [0, 0, 21, 5, 1]<br/>class = Good>, fillcolor="#6fecd5"] ;
301 -> 302 ;
303 [label=<color_I &le; 0.5<br/>gini = 0.194<br/>samples = 19<br/>value = [0, 0, 17, 1, 1]<br/>class = Good>, fillcolor="#4fe8cb"] ;
302 -> 303 ;
304 [label=<x &le; 6.715<br/>gini = 0.111<br/>samples = 17<br/>value = [0, 0, 16, 1, 0]<br/>class = Good>, fillcolor="#45e7c9"] ;
303 -> 304 ;
305 [label=<gini = 0.0<br/>samples = 15<br/>value = [0, 0, 15, 0, 0]<br/>class = Good>, fillcolor="#39e5c5"] ;
304 -> 305 ;
306 [label=<clarity_SI1 &le; 0.5<br/>gini = 0.5<br/>samples = 2<br/>value = [0, 0, 1, 1, 0]<br/>class = Good>, fillcolor="#ffffff"] ;
304 -> 306 ;
307 [label=<gini = 0.0<br/>samples = 1<br/>value = [0, 0, 1, 0, 0]<br/>class = Good>, fillcolor="#39e5c5"] ;
306 -> 307 ;
308 [label=<gini = 0.0<br/>samples = 1<br/>value = [0, 0, 0, 1, 0]<br/>class = Very Good>, fillcolor="#3c39e5"] ;
306 -> 308 ;
309 [label=<x &le; 6.62<br/>gini = 0.5<br/>samples = 2<br/>value = [0, 0, 1, 0, 1]<br/>class = Good>, fillcolor="#ffffff"] ;
303 -> 309 ;
310 [label=<gini = 0.0<br/>samples = 1<br/>value = [0, 0, 0, 0, 1]<br/>class = Fair>, fillcolor="#e539c0"] ;
309 -> 310 ;
311 [label=<gini = 0.0<br/>samples = 1<br/>value = [0, 0, 1, 0, 0]<br/>class = Good>, fillcolor="#39e5c5"] ;
309 -> 311 ;
312 [label=<depth &le; 59.95<br/>gini = 0.5<br/>samples = 8<br/>value = [0, 0, 4, 4, 0]<br/>class = Good>, fillcolor="#ffffff"] ;
302 -> 312 ;
313 [label=<z &le; 3.935<br/>gini = 0.444<br/>samples = 6<br/>value = [0, 0, 2, 4, 0]<br/>class = Very Good>, fillcolor="#9e9cf2"] ;
312 -> 313 ;
314 [label=<gini = 0.0<br/>samples = 2<br/>value = [0, 0, 2, 0, 0]<br/>class = Good>, fillcolor="#39e5c5"] ;
313 -> 314 ;
315 [label=<gini = 0.0<br/>samples = 4<br/>value = [0, 0, 0, 4, 0]<br/>class = Very Good>, fillcolor="#3c39e5"] ;
313 -> 315 ;
316 [label=<gini = 0.0<br/>samples = 2<br/>value = [0, 0, 2, 0, 0]<br/>class = Good>, fillcolor="#39e5c5"] ;
312 -> 316 ;
317 [label=<x &le; 6.785<br/>gini = 0.659<br/>samples = 137<br/>value = [0, 5, 57, 25, 50]<br/>class = Good>, fillcolor="#effdfa"] ;
301 -> 317 ;
318 [label=<y &le; 6.705<br/>gini = 0.504<br/>samples = 30<br/>value = [0, 1, 6, 3, 20]<br/>class = Fair>, fillcolor="#f08cda"] ;
317 -> 318 ;
319 [label=<depth &le; 59.2<br/>gini = 0.651<br/>samples = 13<br/>value = [0, 0, 5, 3, 5]<br/>class = Good>, fillcolor="#ffffff"] ;
318 -> 319 ;
320 [label=<gini = 0.0<br/>samples = 2<br/>value = [0, 0, 2, 0, 0]<br/>class = Good>, fillcolor="#39e5c5"] ;
319 -> 320 ;
321 [label=<z &le; 3.965<br/>gini = 0.645<br/>samples = 11<br/>value = [0, 0, 3, 3, 5]<br/>class = Fair>, fillcolor="#f8ceef"] ;
319 -> 321 ;
322 [label=<gini = 0.0<br/>samples = 3<br/>value = [0, 0, 0, 0, 3]<br/>class = Fair>, fillcolor="#e539c0"] ;
321 -> 322 ;
323 [label=<clarity_SI1 &le; 0.5<br/>gini = 0.656<br/>samples = 8<br/>value = [0, 0, 3, 3, 2]<br/>class = Good>, fillcolor="#ffffff"] ;
321 -> 323 ;
324 [label=<carat &le; 1.095<br/>gini = 0.611<br/>samples = 6<br/>value = [0, 0, 1, 3, 2]<br/>class = Very Good>, fillcolor="#cecef8"] ;
323 -> 324 ;
325 [label=<carat &le; 1.075<br/>gini = 0.48<br/>samples = 5<br/>value = [0, 0, 0, 3, 2]<br/>class = Very Good>, fillcolor="#bebdf6"] ;
324 -> 325 ;
326 [label=<price &le; 7640.5<br/>gini = 0.444<br/>samples = 3<br/>value = [0, 0, 0, 1, 2]<br/>class = Fair>, fillcolor="#f29ce0"] ;
325 -> 326 ;
327 [label=<gini = 0.0<br/>samples = 2<br/>value = [0, 0, 0, 0, 2]<br/>class = Fair>, fillcolor="#e539c0"] ;
326 -> 327 ;
328 [label=<gini = 0.0<br/>samples = 1<br/>value = [0, 0, 0, 1, 0]<br/>class = Very Good>, fillcolor="#3c39e5"] ;
326 -> 328 ;
329 [label=<gini = 0.0<br/>samples = 2<br/>value = [0, 0, 0, 2, 0]<br/>class = Very Good>, fillcolor="#3c39e5"] ;
325 -> 329 ;
330 [label=<gini = 0.0<br/>samples = 1<br/>value = [0, 0, 1, 0, 0]<br/>class = Good>, fillcolor="#39e5c5"] ;
324 -> 330 ;
331 [label=<gini = 0.0<br/>samples = 2<br/>value = [0, 0, 2, 0, 0]<br/>class = Good>, fillcolor="#39e5c5"] ;
323 -> 331 ;
332 [label=<color_H &le; 0.5<br/>gini = 0.215<br/>samples = 17<br/>value = [0, 1, 1, 0, 15]<br/>class = Fair>, fillcolor="#e852c8"] ;
318 -> 332 ;
333 [label=<depth &le; 58.65<br/>gini = 0.117<br/>samples = 16<br/>value = [0, 1, 0, 0, 15]<br/>class = Fair>, fillcolor="#e746c4"] ;
332 -> 333 ;
334 [label=<gini = 0.0<br/>samples = 1<br/>value = [0, 1, 0, 0, 0]<br/>class = Premium>, fillcolor="#7be539"] ;
333 -> 334 ;
335 [label=<gini = 0.0<br/>samples = 15<br/>value = [0, 0, 0, 0, 15]<br/>class = Fair>, fillcolor="#e539c0"] ;
333 -> 335 ;
336 [label=<gini = 0.0<br/>samples = 1<br/>value = [0, 0, 1, 0, 0]<br/>class = Good>, fillcolor="#39e5c5"] ;
332 -> 336 ;
337 [label=<price &le; 8804.5<br/>gini = 0.651<br/>samples = 107<br/>value = [0, 4, 51, 22, 30]<br/>class = Good>, fillcolor="#c9f8ef"] ;
317 -> 337 ;
338 [label=<clarity_SI2 &le; 0.5<br/>gini = 0.561<br/>samples = 43<br/>value = [0, 1, 25, 13, 4]<br/>class = Good>, fillcolor="#b0f5e8"] ;
337 -> 338 ;
339 [label=<y &le; 6.795<br/>gini = 0.34<br/>samples = 20<br/>value = [0, 0, 16, 2, 2]<br/>class = Good>, fillcolor="#65ebd2"] ;
338 -> 339 ;
340 [label=<price &le; 6096.0<br/>gini = 0.444<br/>samples = 3<br/>value = [0, 0, 1, 2, 0]<br/>class = Very Good>, fillcolor="#9e9cf2"] ;
339 -> 340 ;
341 [label=<gini = 0.0<br/>samples = 2<br/>value = [0, 0, 0, 2, 0]<br/>class = Very Good>, fillcolor="#3c39e5"] ;
340 -> 341 ;
342 [label=<gini = 0.0<br/>samples = 1<br/>value = [0, 0, 1, 0, 0]<br/>class = Good>, fillcolor="#39e5c5"] ;
340 -> 342 ;
343 [label=<price &le; 4282.5<br/>gini = 0.208<br/>samples = 17<br/>value = [0, 0, 15, 0, 2]<br/>class = Good>, fillcolor="#53e8cd"] ;
339 -> 343 ;
344 [label=<gini = 0.0<br/>samples = 1<br/>value = [0, 0, 0, 0, 1]<br/>class = Fair>, fillcolor="#e539c0"] ;
343 -> 344 ;
345 [label=<color_F &le; 0.5<br/>gini = 0.117<br/>samples = 16<br/>value = [0, 0, 15, 0, 1]<br/>class = Good>, fillcolor="#46e7c9"] ;
343 -> 345 ;
346 [label=<gini = 0.0<br/>samples = 14<br/>value = [0, 0, 14, 0, 0]<br/>class = Good>, fillcolor="#39e5c5"] ;
345 -> 346 ;
347 [label=<price &le; 6200.0<br/>gini = 0.5<br/>samples = 2<br/>value = [0, 0, 1, 0, 1]<br/>class = Good>, fillcolor="#ffffff"] ;
345 -> 347 ;
348 [label=<gini = 0.0<br/>samples = 1<br/>value = [0, 0, 1, 0, 0]<br/>class = Good>, fillcolor="#39e5c5"] ;
347 -> 348 ;
349 [label=<gini = 0.0<br/>samples = 1<br/>value = [0, 0, 0, 0, 1]<br/>class = Fair>, fillcolor="#e539c0"] ;
347 -> 349 ;
350 [label=<color_E &le; 0.5<br/>gini = 0.609<br/>samples = 23<br/>value = [0, 1, 9, 11, 2]<br/>class = Very Good>, fillcolor="#e3e3fb"] ;
338 -> 350 ;
351 [label=<y &le; 7.41<br/>gini = 0.531<br/>samples = 16<br/>value = [0, 0, 4, 10, 2]<br/>class = Very Good>, fillcolor="#9e9cf2"] ;
350 -> 351 ;
352 [label=<carat &le; 1.255<br/>gini = 0.426<br/>samples = 13<br/>value = [0, 0, 4, 9, 0]<br/>class = Very Good>, fillcolor="#9391f1"] ;
351 -> 352 ;
353 [label=<gini = 0.0<br/>samples = 5<br/>value = [0, 0, 0, 5, 0]<br/>class = Very Good>, fillcolor="#3c39e5"] ;
352 -> 353 ;
354 [label=<z &le; 4.22<br/>gini = 0.5<br/>samples = 8<br/>value = [0, 0, 4, 4, 0]<br/>class = Good>, fillcolor="#ffffff"] ;
352 -> 354 ;
355 [label=<gini = 0.0<br/>samples = 3<br/>value = [0, 0, 3, 0, 0]<br/>class = Good>, fillcolor="#39e5c5"] ;
354 -> 355 ;
356 [label=<z &le; 4.395<br/>gini = 0.32<br/>samples = 5<br/>value = [0, 0, 1, 4, 0]<br/>class = Very Good>, fillcolor="#6d6aec"] ;
354 -> 356 ;
357 [label=<gini = 0.0<br/>samples = 4<br/>value = [0, 0, 0, 4, 0]<br/>class = Very Good>, fillcolor="#3c39e5"] ;
356 -> 357 ;
358 [label=<gini = 0.0<br/>samples = 1<br/>value = [0, 0, 1, 0, 0]<br/>class = Good>, fillcolor="#39e5c5"] ;
356 -> 358 ;
359 [label=<x &le; 7.485<br/>gini = 0.444<br/>samples = 3<br/>value = [0, 0, 0, 1, 2]<br/>class = Fair>, fillcolor="#f29ce0"] ;
351 -> 359 ;
360 [label=<gini = 0.0<br/>samples = 2<br/>value = [0, 0, 0, 0, 2]<br/>class = Fair>, fillcolor="#e539c0"] ;
359 -> 360 ;
361 [label=<gini = 0.0<br/>samples = 1<br/>value = [0, 0, 0, 1, 0]<br/>class = Very Good>, fillcolor="#3c39e5"] ;
359 -> 361 ;
362 [label=<depth &le; 58.6<br/>gini = 0.449<br/>samples = 7<br/>value = [0, 1, 5, 1, 0]<br/>class = Good>, fillcolor="#7beed8"] ;
350 -> 362 ;
363 [label=<price &le; 6485.0<br/>gini = 0.5<br/>samples = 2<br/>value = [0, 1, 0, 1, 0]<br/>class = Premium>, fillcolor="#ffffff"] ;
362 -> 363 ;
364 [label=<gini = 0.0<br/>samples = 1<br/>value = [0, 1, 0, 0, 0]<br/>class = Premium>, fillcolor="#7be539"] ;
363 -> 364 ;
365 [label=<gini = 0.0<br/>samples = 1<br/>value = [0, 0, 0, 1, 0]<br/>class = Very Good>, fillcolor="#3c39e5"] ;
363 -> 365 ;
366 [label=<gini = 0.0<br/>samples = 5<br/>value = [0, 0, 5, 0, 0]<br/>class = Good>, fillcolor="#39e5c5"] ;
362 -> 366 ;
367 [label=<depth &le; 59.55<br/>gini = 0.648<br/>samples = 64<br/>value = [0, 3, 26, 9, 26]<br/>class = Good>, fillcolor="#ffffff"] ;
337 -> 367 ;
368 [label=<z &le; 4.44<br/>gini = 0.587<br/>samples = 24<br/>value = [0, 1, 4, 5, 14]<br/>class = Fair>, fillcolor="#f3a1e1"] ;
367 -> 368 ;
369 [label=<color_G &le; 0.5<br/>gini = 0.165<br/>samples = 11<br/>value = [0, 0, 1, 0, 10]<br/>class = Fair>, fillcolor="#e84dc6"] ;
368 -> 369 ;
370 [label=<gini = 0.0<br/>samples = 9<br/>value = [0, 0, 0, 0, 9]<br/>class = Fair>, fillcolor="#e539c0"] ;
369 -> 370 ;
371 [label=<clarity_VS1 &le; 0.5<br/>gini = 0.5<br/>samples = 2<br/>value = [0, 0, 1, 0, 1]<br/>class = Good>, fillcolor="#ffffff"] ;
369 -> 371 ;
372 [label=<gini = 0.0<br/>samples = 1<br/>value = [0, 0, 1, 0, 0]<br/>class = Good>, fillcolor="#39e5c5"] ;
371 -> 372 ;
373 [label=<gini = 0.0<br/>samples = 1<br/>value = [0, 0, 0, 0, 1]<br/>class = Fair>, fillcolor="#e539c0"] ;
371 -> 373 ;
374 [label=<table &le; 55.5<br/>gini = 0.698<br/>samples = 13<br/>value = [0, 1, 3, 5, 4]<br/>class = Very Good>, fillcolor="#e9e9fc"] ;
368 -> 374 ;
375 [label=<color_G &le; 0.5<br/>gini = 0.375<br/>samples = 4<br/>value = [0, 1, 0, 3, 0]<br/>class = Very Good>, fillcolor="#7d7bee"] ;
374 -> 375 ;
376 [label=<gini = 0.0<br/>samples = 3<br/>value = [0, 0, 0, 3, 0]<br/>class = Very Good>, fillcolor="#3c39e5"] ;
375 -> 376 ;
377 [label=<gini = 0.0<br/>samples = 1<br/>value = [0, 1, 0, 0, 0]<br/>class = Premium>, fillcolor="#7be539"] ;
375 -> 377 ;
378 [label=<clarity_SI2 &le; 0.5<br/>gini = 0.642<br/>samples = 9<br/>value = [0, 0, 3, 2, 4]<br/>class = Fair>, fillcolor="#fbdef4"] ;
374 -> 378 ;
379 [label=<price &le; 11752.0<br/>gini = 0.56<br/>samples = 5<br/>value = [0, 0, 3, 1, 1]<br/>class = Good>, fillcolor="#9cf2e2"] ;
378 -> 379 ;
380 [label=<gini = 0.0<br/>samples = 1<br/>value = [0, 0, 0, 1, 0]<br/>class = Very Good>, fillcolor="#3c39e5"] ;
379 -> 380 ;
381 [label=<color_G &le; 0.5<br/>gini = 0.375<br/>samples = 4<br/>value = [0, 0, 3, 0, 1]<br/>class = Good>, fillcolor="#7beed8"] ;
379 -> 381 ;
382 [label=<gini = 0.0<br/>samples = 2<br/>value = [0, 0, 2, 0, 0]<br/>class = Good>, fillcolor="#39e5c5"] ;
381 -> 382 ;
383 [label=<x &le; 8.24<br/>gini = 0.5<br/>samples = 2<br/>value = [0, 0, 1, 0, 1]<br/>class = Good>, fillcolor="#ffffff"] ;
381 -> 383 ;
384 [label=<gini = 0.0<br/>samples = 1<br/>value = [0, 0, 0, 0, 1]<br/>class = Fair>, fillcolor="#e539c0"] ;
383 -> 384 ;
385 [label=<gini = 0.0<br/>samples = 1<br/>value = [0, 0, 1, 0, 0]<br/>class = Good>, fillcolor="#39e5c5"] ;
383 -> 385 ;
386 [label=<z &le; 6.59<br/>gini = 0.375<br/>samples = 4<br/>value = [0, 0, 0, 1, 3]<br/>class = Fair>, fillcolor="#ee7bd5"] ;
378 -> 386 ;
387 [label=<gini = 0.0<br/>samples = 3<br/>value = [0, 0, 0, 0, 3]<br/>class = Fair>, fillcolor="#e539c0"] ;
386 -> 387 ;
388 [label=<gini = 0.0<br/>samples = 1<br/>value = [0, 0, 0, 1, 0]<br/>class = Very Good>, fillcolor="#3c39e5"] ;
386 -> 388 ;
389 [label=<table &le; 56.5<br/>gini = 0.595<br/>samples = 40<br/>value = [0, 2, 22, 4, 12]<br/>class = Good>, fillcolor="#b8f6ea"] ;
367 -> 389 ;
390 [label=<z &le; 4.945<br/>gini = 0.655<br/>samples = 20<br/>value = [0, 2, 7, 2, 9]<br/>class = Fair>, fillcolor="#fbe1f5"] ;
389 -> 390 ;
391 [label=<x &le; 7.055<br/>gini = 0.637<br/>samples = 17<br/>value = [0, 2, 4, 2, 9]<br/>class = Fair>, fillcolor="#f5b3e7"] ;
390 -> 391 ;
392 [label=<gini = 0.0<br/>samples = 1<br/>value = [0, 1, 0, 0, 0]<br/>class = Premium>, fillcolor="#7be539"] ;
391 -> 392 ;
393 [label=<x &le; 7.47<br/>gini = 0.602<br/>samples = 16<br/>value = [0, 1, 4, 2, 9]<br/>class = Fair>, fillcolor="#f4ace5"] ;
391 -> 393 ;
394 [label=<gini = 0.0<br/>samples = 4<br/>value = [0, 0, 0, 0, 4]<br/>class = Fair>, fillcolor="#e539c0"] ;
393 -> 394 ;
395 [label=<y &le; 8.225<br/>gini = 0.681<br/>samples = 12<br/>value = [0, 1, 4, 2, 5]<br/>class = Fair>, fillcolor="#fce6f7"] ;
393 -> 395 ;
396 [label=<price &le; 12688.5<br/>gini = 0.691<br/>samples = 9<br/>value = [0, 1, 4, 2, 2]<br/>class = Good>, fillcolor="#c6f8ee"] ;
395 -> 396 ;
397 [label=<color_D &le; 0.5<br/>gini = 0.48<br/>samples = 5<br/>value = [0, 0, 3, 0, 2]<br/>class = Good>, fillcolor="#bdf6ec"] ;
396 -> 397 ;
398 [label=<y &le; 7.53<br/>gini = 0.444<br/>samples = 3<br/>value = [0, 0, 1, 0, 2]<br/>class = Fair>, fillcolor="#f29ce0"] ;
397 -> 398 ;
399 [label=<gini = 0.0<br/>samples = 1<br/>value = [0, 0, 1, 0, 0]<br/>class = Good>, fillcolor="#39e5c5"] ;
398 -> 399 ;
400 [label=<gini = 0.0<br/>samples = 2<br/>value = [0, 0, 0, 0, 2]<br/>class = Fair>, fillcolor="#e539c0"] ;
398 -> 400 ;
401 [label=<gini = 0.0<br/>samples = 2<br/>value = [0, 0, 2, 0, 0]<br/>class = Good>, fillcolor="#39e5c5"] ;
397 -> 401 ;
402 [label=<color_F &le; 0.5<br/>gini = 0.625<br/>samples = 4<br/>value = [0, 1, 1, 2, 0]<br/>class = Very Good>, fillcolor="#bebdf6"] ;
396 -> 402 ;
403 [label=<gini = 0.0<br/>samples = 2<br/>value = [0, 0, 0, 2, 0]<br/>class = Very Good>, fillcolor="#3c39e5"] ;
402 -> 403 ;
404 [label=<x &le; 7.87<br/>gini = 0.5<br/>samples = 2<br/>value = [0, 1, 1, 0, 0]<br/>class = Premium>, fillcolor="#ffffff"] ;
402 -> 404 ;
405 [label=<gini = 0.0<br/>samples = 1<br/>value = [0, 1, 0, 0, 0]<br/>class = Premium>, fillcolor="#7be539"] ;
404 -> 405 ;
406 [label=<gini = 0.0<br/>samples = 1<br/>value = [0, 0, 1, 0, 0]<br/>class = Good>, fillcolor="#39e5c5"] ;
404 -> 406 ;
407 [label=<gini = 0.0<br/>samples = 3<br/>value = [0, 0, 0, 0, 3]<br/>class = Fair>, fillcolor="#e539c0"] ;
395 -> 407 ;
408 [label=<gini = 0.0<br/>samples = 3<br/>value = [0, 0, 3, 0, 0]<br/>class = Good>, fillcolor="#39e5c5"] ;
390 -> 408 ;
409 [label=<price &le; 15802.5<br/>gini = 0.405<br/>samples = 20<br/>value = [0, 0, 15, 2, 3]<br/>class = Good>, fillcolor="#73edd6"] ;
389 -> 409 ;
410 [label=<depth &le; 59.85<br/>gini = 0.29<br/>samples = 18<br/>value = [0, 0, 15, 2, 1]<br/>class = Good>, fillcolor="#5eead0"] ;
409 -> 410 ;
411 [label=<clarity_VS2 &le; 0.5<br/>gini = 0.43<br/>samples = 11<br/>value = [0, 0, 8, 2, 1]<br/>class = Good>, fillcolor="#7beed8"] ;
410 -> 411 ;
412 [label=<depth &le; 59.75<br/>gini = 0.34<br/>samples = 10<br/>value = [0, 0, 8, 1, 1]<br/>class = Good>, fillcolor="#65ebd2"] ;
411 -> 412 ;
413 [label=<gini = 0.0<br/>samples = 7<br/>value = [0, 0, 7, 0, 0]<br/>class = Good>, fillcolor="#39e5c5"] ;
412 -> 413 ;
414 [label=<y &le; 6.85<br/>gini = 0.667<br/>samples = 3<br/>value = [0, 0, 1, 1, 1]<br/>class = Good>, fillcolor="#ffffff"] ;
412 -> 414 ;
415 [label=<gini = 0.0<br/>samples = 1<br/>value = [0, 0, 1, 0, 0]<br/>class = Good>, fillcolor="#39e5c5"] ;
414 -> 415 ;
416 [label=<y &le; 7.255<br/>gini = 0.5<br/>samples = 2<br/>value = [0, 0, 0, 1, 1]<br/>class = Very Good>, fillcolor="#ffffff"] ;
414 -> 416 ;
417 [label=<gini = 0.0<br/>samples = 1<br/>value = [0, 0, 0, 1, 0]<br/>class = Very Good>, fillcolor="#3c39e5"] ;
416 -> 417 ;
418 [label=<gini = 0.0<br/>samples = 1<br/>value = [0, 0, 0, 0, 1]<br/>class = Fair>, fillcolor="#e539c0"] ;
416 -> 418 ;
419 [label=<gini = 0.0<br/>samples = 1<br/>value = [0, 0, 0, 1, 0]<br/>class = Very Good>, fillcolor="#3c39e5"] ;
411 -> 419 ;
420 [label=<gini = 0.0<br/>samples = 7<br/>value = [0, 0, 7, 0, 0]<br/>class = Good>, fillcolor="#39e5c5"] ;
410 -> 420 ;
421 [label=<gini = 0.0<br/>samples = 2<br/>value = [0, 0, 0, 0, 2]<br/>class = Fair>, fillcolor="#e539c0"] ;
409 -> 421 ;
422 [label=<carat &le; 1.545<br/>gini = 0.667<br/>samples = 12<br/>value = [0, 2, 2, 6, 2]<br/>class = Very Good>, fillcolor="#b1b0f5"] ;
256 -> 422 ;
423 [label=<clarity_SI1 &le; 0.5<br/>gini = 0.722<br/>samples = 6<br/>value = [0, 1, 2, 1, 2]<br/>class = Good>, fillcolor="#ffffff"] ;
422 -> 423 ;
424 [label=<depth &le; 59.55<br/>gini = 0.625<br/>samples = 4<br/>value = [0, 1, 2, 1, 0]<br/>class = Good>, fillcolor="#bdf6ec"] ;
423 -> 424 ;
425 [label=<gini = 0.0<br/>samples = 1<br/>value = [0, 0, 0, 1, 0]<br/>class = Very Good>, fillcolor="#3c39e5"] ;
424 -> 425 ;
426 [label=<table &le; 56.5<br/>gini = 0.444<br/>samples = 3<br/>value = [0, 1, 2, 0, 0]<br/>class = Good>, fillcolor="#9cf2e2"] ;
424 -> 426 ;
427 [label=<y &le; 6.35<br/>gini = 0.5<br/>samples = 2<br/>value = [0, 1, 1, 0, 0]<br/>class = Premium>, fillcolor="#ffffff"] ;
426 -> 427 ;
428 [label=<gini = 0.0<br/>samples = 1<br/>value = [0, 0, 1, 0, 0]<br/>class = Good>, fillcolor="#39e5c5"] ;
427 -> 428 ;
429 [label=<gini = 0.0<br/>samples = 1<br/>value = [0, 1, 0, 0, 0]<br/>class = Premium>, fillcolor="#7be539"] ;
427 -> 429 ;
430 [label=<gini = 0.0<br/>samples = 1<br/>value = [0, 0, 1, 0, 0]<br/>class = Good>, fillcolor="#39e5c5"] ;
426 -> 430 ;
431 [label=<gini = 0.0<br/>samples = 2<br/>value = [0, 0, 0, 0, 2]<br/>class = Fair>, fillcolor="#e539c0"] ;
423 -> 431 ;
432 [label=<y &le; 8.22<br/>gini = 0.278<br/>samples = 6<br/>value = [0, 1, 0, 5, 0]<br/>class = Very Good>, fillcolor="#6361ea"] ;
422 -> 432 ;
433 [label=<gini = 0.0<br/>samples = 5<br/>value = [0, 0, 0, 5, 0]<br/>class = Very Good>, fillcolor="#3c39e5"] ;
432 -> 433 ;
434 [label=<gini = 0.0<br/>samples = 1<br/>value = [0, 1, 0, 0, 0]<br/>class = Premium>, fillcolor="#7be539"] ;
432 -> 434 ;
435 [label=<x &le; 5.375<br/>gini = 0.294<br/>samples = 16179<br/>value = [8, 43, 13452, 937, 1739]<br/>class = Good>, fillcolor="#5eead0"] ;
3 -> 435 ;
436 [label=<x &le; 4.275<br/>gini = 0.233<br/>samples = 8982<br/>value = [2, 9, 7809, 274, 888]<br/>class = Good>, fillcolor="#56e9cd"] ;
435 -> 436 ;
437 [label=<price &le; 722.5<br/>gini = 0.441<br/>samples = 640<br/>value = [0, 2, 436, 5, 197]<br/>class = Good>, fillcolor="#94f1e0"] ;
436 -> 437 ;
438 [label=<z &le; 2.475<br/>gini = 0.466<br/>samples = 559<br/>value = [0, 2, 361, 5, 191]<br/>class = Good>, fillcolor="#a4f3e4"] ;
437 -> 438 ;
439 [label=<price &le; 492.5<br/>gini = 0.536<br/>samples = 105<br/>value = [0, 1, 51, 3, 50]<br/>class = Good>, fillcolor="#fbfffe"] ;
438 -> 439 ;
440 [label=<clarity_VS2 &le; 0.5<br/>gini = 0.45<br/>samples = 47<br/>value = [0, 1, 11, 2, 33]<br/>class = Fair>, fillcolor="#ef86d8"] ;
439 -> 440 ;
441 [label=<table &le; 55.5<br/>gini = 0.309<br/>samples = 38<br/>value = [0, 0, 6, 1, 31]<br/>class = Fair>, fillcolor="#eb64ce"] ;
440 -> 441 ;
442 [label=<clarity_VVS2 &le; 0.5<br/>gini = 0.486<br/>samples = 12<br/>value = [0, 0, 5, 0, 7]<br/>class = Fair>, fillcolor="#f8c6ed"] ;
441 -> 442 ;
443 [label=<depth &le; 62.05<br/>gini = 0.469<br/>samples = 8<br/>value = [0, 0, 5, 0, 3]<br/>class = Good>, fillcolor="#b0f5e8"] ;
442 -> 443 ;
444 [label=<x &le; 3.995<br/>gini = 0.278<br/>samples = 6<br/>value = [0, 0, 5, 0, 1]<br/>class = Good>, fillcolor="#61ead1"] ;
443 -> 444 ;
445 [label=<gini = 0.0<br/>samples = 5<br/>value = [0, 0, 5, 0, 0]<br/>class = Good>, fillcolor="#39e5c5"] ;
444 -> 445 ;
446 [label=<gini = 0.0<br/>samples = 1<br/>value = [0, 0, 0, 0, 1]<br/>class = Fair>, fillcolor="#e539c0"] ;
444 -> 446 ;
447 [label=<gini = 0.0<br/>samples = 2<br/>value = [0, 0, 0, 0, 2]<br/>class = Fair>, fillcolor="#e539c0"] ;
443 -> 447 ;
448 [label=<gini = 0.0<br/>samples = 4<br/>value = [0, 0, 0, 0, 4]<br/>class = Fair>, fillcolor="#e539c0"] ;
442 -> 448 ;
449 [label=<clarity_SI1 &le; 0.5<br/>gini = 0.145<br/>samples = 26<br/>value = [0, 0, 1, 1, 24]<br/>class = Fair>, fillcolor="#e749c5"] ;
441 -> 449 ;
450 [label=<depth &le; 62.45<br/>gini = 0.077<br/>samples = 25<br/>value = [0, 0, 0, 1, 24]<br/>class = Fair>, fillcolor="#e641c3"] ;
449 -> 450 ;
451 [label=<gini = 0.0<br/>samples = 23<br/>value = [0, 0, 0, 0, 23]<br/>class = Fair>, fillcolor="#e539c0"] ;
450 -> 451 ;
452 [label=<clarity_VVS2 &le; 0.5<br/>gini = 0.5<br/>samples = 2<br/>value = [0, 0, 0, 1, 1]<br/>class = Very Good>, fillcolor="#ffffff"] ;
450 -> 452 ;
453 [label=<gini = 0.0<br/>samples = 1<br/>value = [0, 0, 0, 1, 0]<br/>class = Very Good>, fillcolor="#3c39e5"] ;
452 -> 453 ;
454 [label=<gini = 0.0<br/>samples = 1<br/>value = [0, 0, 0, 0, 1]<br/>class = Fair>, fillcolor="#e539c0"] ;
452 -> 454 ;
455 [label=<gini = 0.0<br/>samples = 1<br/>value = [0, 0, 1, 0, 0]<br/>class = Good>, fillcolor="#39e5c5"] ;
449 -> 455 ;
456 [label=<price &le; 432.5<br/>gini = 0.617<br/>samples = 9<br/>value = [0, 1, 5, 1, 2]<br/>class = Good>, fillcolor="#aaf4e6"] ;
440 -> 456 ;
457 [label=<y &le; 4.035<br/>gini = 0.278<br/>samples = 6<br/>value = [0, 0, 5, 0, 1]<br/>class = Good>, fillcolor="#61ead1"] ;
456 -> 457 ;
458 [label=<gini = 0.0<br/>samples = 5<br/>value = [0, 0, 5, 0, 0]<br/>class = Good>, fillcolor="#39e5c5"] ;
457 -> 458 ;
459 [label=<gini = 0.0<br/>samples = 1<br/>value = [0, 0, 0, 0, 1]<br/>class = Fair>, fillcolor="#e539c0"] ;
457 -> 459 ;
460 [label=<color_D &le; 0.5<br/>gini = 0.667<br/>samples = 3<br/>value = [0, 1, 0, 1, 1]<br/>class = Premium>, fillcolor="#ffffff"] ;
456 -> 460 ;
461 [label=<x &le; 3.98<br/>gini = 0.5<br/>samples = 2<br/>value = [0, 1, 0, 0, 1]<br/>class = Premium>, fillcolor="#ffffff"] ;
460 -> 461 ;
462 [label=<gini = 0.0<br/>samples = 1<br/>value = [0, 1, 0, 0, 0]<br/>class = Premium>, fillcolor="#7be539"] ;
461 -> 462 ;
463 [label=<gini = 0.0<br/>samples = 1<br/>value = [0, 0, 0, 0, 1]<br/>class = Fair>, fillcolor="#e539c0"] ;
461 -> 463 ;
464 [label=<gini = 0.0<br/>samples = 1<br/>value = [0, 0, 0, 1, 0]<br/>class = Very Good>, fillcolor="#3c39e5"] ;
460 -> 464 ;
465 [label=<color_E &le; 0.5<br/>gini = 0.438<br/>samples = 58<br/>value = [0, 0, 40, 1, 17]<br/>class = Good>, fillcolor="#90f0de"] ;
439 -> 465 ;
466 [label=<price &le; 568.0<br/>gini = 0.292<br/>samples = 45<br/>value = [0, 0, 37, 0, 8]<br/>class = Good>, fillcolor="#64ebd2"] ;
465 -> 466 ;
467 [label=<depth &le; 60.15<br/>gini = 0.153<br/>samples = 36<br/>value = [0, 0, 33, 0, 3]<br/>class = Good>, fillcolor="#4be7ca"] ;
466 -> 467 ;
468 [label=<gini = 0.0<br/>samples = 1<br/>value = [0, 0, 0, 0, 1]<br/>class = Fair>, fillcolor="#e539c0"] ;
467 -> 468 ;
469 [label=<table &le; 55.5<br/>gini = 0.108<br/>samples = 35<br/>value = [0, 0, 33, 0, 2]<br/>class = Good>, fillcolor="#45e7c9"] ;
467 -> 469 ;
470 [label=<depth &le; 61.35<br/>gini = 0.32<br/>samples = 10<br/>value = [0, 0, 8, 0, 2]<br/>class = Good>, fillcolor="#6aecd4"] ;
469 -> 470 ;
471 [label=<gini = 0.0<br/>samples = 2<br/>value = [0, 0, 0, 0, 2]<br/>class = Fair>, fillcolor="#e539c0"] ;
470 -> 471 ;
472 [label=<gini = 0.0<br/>samples = 8<br/>value = [0, 0, 8, 0, 0]<br/>class = Good>, fillcolor="#39e5c5"] ;
470 -> 472 ;
473 [label=<gini = 0.0<br/>samples = 25<br/>value = [0, 0, 25, 0, 0]<br/>class = Good>, fillcolor="#39e5c5"] ;
469 -> 473 ;
474 [label=<price &le; 643.0<br/>gini = 0.494<br/>samples = 9<br/>value = [0, 0, 4, 0, 5]<br/>class = Fair>, fillcolor="#fad7f2"] ;
466 -> 474 ;
475 [label=<gini = 0.0<br/>samples = 5<br/>value = [0, 0, 0, 0, 5]<br/>class = Fair>, fillcolor="#e539c0"] ;
474 -> 475 ;
476 [label=<gini = 0.0<br/>samples = 4<br/>value = [0, 0, 4, 0, 0]<br/>class = Good>, fillcolor="#39e5c5"] ;
474 -> 476 ;
477 [label=<price &le; 584.5<br/>gini = 0.462<br/>samples = 13<br/>value = [0, 0, 3, 1, 9]<br/>class = Fair>, fillcolor="#ef88d9"] ;
465 -> 477 ;
478 [label=<gini = 0.0<br/>samples = 8<br/>value = [0, 0, 0, 0, 8]<br/>class = Fair>, fillcolor="#e539c0"] ;
477 -> 478 ;
479 [label=<y &le; 3.96<br/>gini = 0.56<br/>samples = 5<br/>value = [0, 0, 3, 1, 1]<br/>class = Good>, fillcolor="#9cf2e2"] ;
477 -> 479 ;
480 [label=<gini = 0.0<br/>samples = 1<br/>value = [0, 0, 0, 1, 0]<br/>class = Very Good>, fillcolor="#3c39e5"] ;
479 -> 480 ;
481 [label=<depth &le; 62.05<br/>gini = 0.375<br/>samples = 4<br/>value = [0, 0, 3, 0, 1]<br/>class = Good>, fillcolor="#7beed8"] ;
479 -> 481 ;
482 [label=<gini = 0.0<br/>samples = 3<br/>value = [0, 0, 3, 0, 0]<br/>class = Good>, fillcolor="#39e5c5"] ;
481 -> 482 ;
483 [label=<gini = 0.0<br/>samples = 1<br/>value = [0, 0, 0, 0, 1]<br/>class = Fair>, fillcolor="#e539c0"] ;
481 -> 483 ;
484 [label=<clarity_VS1 &le; 0.5<br/>gini = 0.437<br/>samples = 454<br/>value = [0, 1, 310, 2, 141]<br/>class = Good>, fillcolor="#94f1e0"] ;
438 -> 484 ;
485 [label=<price &le; 567.0<br/>gini = 0.468<br/>samples = 347<br/>value = [0, 0, 220, 2, 125]<br/>class = Good>, fillcolor="#aaf4e6"] ;
484 -> 485 ;
486 [label=<table &le; 54.5<br/>gini = 0.49<br/>samples = 195<br/>value = [0, 0, 111, 0, 84]<br/>class = Good>, fillcolor="#cff9f1"] ;
485 -> 486 ;
487 [label=<color_E &le; 0.5<br/>gini = 0.159<br/>samples = 23<br/>value = [0, 0, 21, 0, 2]<br/>class = Good>, fillcolor="#4ce7cb"] ;
486 -> 487 ;
488 [label=<price &le; 553.0<br/>gini = 0.087<br/>samples = 22<br/>value = [0, 0, 21, 0, 1]<br/>class = Good>, fillcolor="#42e6c8"] ;
487 -> 488 ;
489 [label=<gini = 0.0<br/>samples = 21<br/>value = [0, 0, 21, 0, 0]<br/>class = Good>, fillcolor="#39e5c5"] ;
488 -> 489 ;
490 [label=<gini = 0.0<br/>samples = 1<br/>value = [0, 0, 0, 0, 1]<br/>class = Fair>, fillcolor="#e539c0"] ;
488 -> 490 ;
491 [label=<gini = 0.0<br/>samples = 1<br/>value = [0, 0, 0, 0, 1]<br/>class = Fair>, fillcolor="#e539c0"] ;
487 -> 491 ;
492 [label=<color_G &le; 0.5<br/>gini = 0.499<br/>samples = 172<br/>value = [0, 0, 90, 0, 82]<br/>class = Good>, fillcolor="#edfdfa"] ;
486 -> 492 ;
493 [label=<clarity_VS2 &le; 0.5<br/>gini = 0.481<br/>samples = 112<br/>value = [0, 0, 67, 0, 45]<br/>class = Good>, fillcolor="#bef6ec"] ;
492 -> 493 ;
494 [label=<color_E &le; 0.5<br/>gini = 0.5<br/>samples = 76<br/>value = [0, 0, 39, 0, 37]<br/>class = Good>, fillcolor="#f5fefc"] ;
493 -> 494 ;
495 [label=<price &le; 445.0<br/>gini = 0.487<br/>samples = 62<br/>value = [0, 0, 36, 0, 26]<br/>class = Good>, fillcolor="#c8f8ef"] ;
494 -> 495 ;
496 [label=<clarity_VVS1 &le; 0.5<br/>gini = 0.426<br/>samples = 13<br/>value = [0, 0, 4, 0, 9]<br/>class = Fair>, fillcolor="#f191dc"] ;
495 -> 496 ;
497 [label=<depth &le; 62.4<br/>gini = 0.375<br/>samples = 12<br/>value = [0, 0, 3, 0, 9]<br/>class = Fair>, fillcolor="#ee7bd5"] ;
496 -> 497 ;
498 [label=<x &le; 4.26<br/>gini = 0.444<br/>samples = 9<br/>value = [0, 0, 3, 0, 6]<br/>class = Fair>, fillcolor="#f29ce0"] ;
497 -> 498 ;
499 [label=<depth &le; 61.55<br/>gini = 0.375<br/>samples = 8<br/>value = [0, 0, 2, 0, 6]<br/>class = Fair>, fillcolor="#ee7bd5"] ;
498 -> 499 ;
500 [label=<z &le; 2.52<br/>gini = 0.48<br/>samples = 5<br/>value = [0, 0, 2, 0, 3]<br/>class = Fair>, fillcolor="#f6bdea"] ;
499 -> 500 ;
501 [label=<gini = 0.0<br/>samples = 1<br/>value = [0, 0, 1, 0, 0]<br/>class = Good>, fillcolor="#39e5c5"] ;
500 -> 501 ;
502 [label=<table &le; 55.5<br/>gini = 0.375<br/>samples = 4<br/>value = [0, 0, 1, 0, 3]<br/>class = Fair>, fillcolor="#ee7bd5"] ;
500 -> 502 ;
503 [label=<gini = 0.0<br/>samples = 1<br/>value = [0, 0, 1, 0, 0]<br/>class = Good>, fillcolor="#39e5c5"] ;
502 -> 503 ;
504 [label=<gini = 0.0<br/>samples = 3<br/>value = [0, 0, 0, 0, 3]<br/>class = Fair>, fillcolor="#e539c0"] ;
502 -> 504 ;
505 [label=<gini = 0.0<br/>samples = 3<br/>value = [0, 0, 0, 0, 3]<br/>class = Fair>, fillcolor="#e539c0"] ;
499 -> 505 ;
506 [label=<gini = 0.0<br/>samples = 1<br/>value = [0, 0, 1, 0, 0]<br/>class = Good>, fillcolor="#39e5c5"] ;
498 -> 506 ;
507 [label=<gini = 0.0<br/>samples = 3<br/>value = [0, 0, 0, 0, 3]<br/>class = Fair>, fillcolor="#e539c0"] ;
497 -> 507 ;
508 [label=<gini = 0.0<br/>samples = 1<br/>value = [0, 0, 1, 0, 0]<br/>class = Good>, fillcolor="#39e5c5"] ;
496 -> 508 ;
509 [label=<x &le; 4.075<br/>gini = 0.453<br/>samples = 49<br/>value = [0, 0, 32, 0, 17]<br/>class = Good>, fillcolor="#a2f3e4"] ;
495 -> 509 ;
510 [label=<x &le; 4.055<br/>gini = 0.484<br/>samples = 17<br/>value = [0, 0, 7, 0, 10]<br/>class = Fair>, fillcolor="#f7c4ec"] ;
509 -> 510 ;
511 [label=<z &le; 2.495<br/>gini = 0.497<br/>samples = 13<br/>value = [0, 0, 7, 0, 6]<br/>class = Good>, fillcolor="#e3fbf7"] ;
510 -> 511 ;
512 [label=<y &le; 4.07<br/>gini = 0.408<br/>samples = 7<br/>value = [0, 0, 2, 0, 5]<br/>class = Fair>, fillcolor="#ef88d9"] ;
511 -> 512 ;
513 [label=<color_I &le; 0.5<br/>gini = 0.278<br/>samples = 6<br/>value = [0, 0, 1, 0, 5]<br/>class = Fair>, fillcolor="#ea61cd"] ;
512 -> 513 ;
514 [label=<gini = 0.0<br/>samples = 5<br/>value = [0, 0, 0, 0, 5]<br/>class = Fair>, fillcolor="#e539c0"] ;
513 -> 514 ;
515 [label=<gini = 0.0<br/>samples = 1<br/>value = [0, 0, 1, 0, 0]<br/>class = Good>, fillcolor="#39e5c5"] ;
513 -> 515 ;
516 [label=<gini = 0.0<br/>samples = 1<br/>value = [0, 0, 1, 0, 0]<br/>class = Good>, fillcolor="#39e5c5"] ;
512 -> 516 ;
517 [label=<x &le; 3.985<br/>gini = 0.278<br/>samples = 6<br/>value = [0, 0, 5, 0, 1]<br/>class = Good>, fillcolor="#61ead1"] ;
511 -> 517 ;
518 [label=<gini = 0.0<br/>samples = 1<br/>value = [0, 0, 0, 0, 1]<br/>class = Fair>, fillcolor="#e539c0"] ;
517 -> 518 ;
519 [label=<gini = 0.0<br/>samples = 5<br/>value = [0, 0, 5, 0, 0]<br/>class = Good>, fillcolor="#39e5c5"] ;
517 -> 519 ;
520 [label=<gini = 0.0<br/>samples = 4<br/>value = [0, 0, 0, 0, 4]<br/>class = Fair>, fillcolor="#e539c0"] ;
510 -> 520 ;
521 [label=<clarity_VVS1 &le; 0.5<br/>gini = 0.342<br/>samples = 32<br/>value = [0, 0, 25, 0, 7]<br/>class = Good>, fillcolor="#70ecd5"] ;
509 -> 521 ;
522 [label=<price &le; 483.5<br/>gini = 0.278<br/>samples = 30<br/>value = [0, 0, 25, 0, 5]<br/>class = Good>, fillcolor="#61ead1"] ;
521 -> 522 ;
523 [label=<gini = 0.0<br/>samples = 13<br/>value = [0, 0, 13, 0, 0]<br/>class = Good>, fillcolor="#39e5c5"] ;
522 -> 523 ;
524 [label=<depth &le; 62.25<br/>gini = 0.415<br/>samples = 17<br/>value = [0, 0, 12, 0, 5]<br/>class = Good>, fillcolor="#8bf0dd"] ;
522 -> 524 ;
525 [label=<price &le; 491.0<br/>gini = 0.26<br/>samples = 13<br/>value = [0, 0, 11, 0, 2]<br/>class = Good>, fillcolor="#5dead0"] ;
524 -> 525 ;
526 [label=<gini = 0.0<br/>samples = 1<br/>value = [0, 0, 0, 0, 1]<br/>class = Fair>, fillcolor="#e539c0"] ;
525 -> 526 ;
527 [label=<y &le; 4.305<br/>gini = 0.153<br/>samples = 12<br/>value = [0, 0, 11, 0, 1]<br/>class = Good>, fillcolor="#4be7ca"] ;
525 -> 527 ;
528 [label=<gini = 0.0<br/>samples = 10<br/>value = [0, 0, 10, 0, 0]<br/>class = Good>, fillcolor="#39e5c5"] ;
527 -> 528 ;
529 [label=<z &le; 2.665<br/>gini = 0.5<br/>samples = 2<br/>value = [0, 0, 1, 0, 1]<br/>class = Good>, fillcolor="#ffffff"] ;
527 -> 529 ;
530 [label=<gini = 0.0<br/>samples = 1<br/>value = [0, 0, 0, 0, 1]<br/>class = Fair>, fillcolor="#e539c0"] ;
529 -> 530 ;
531 [label=<gini = 0.0<br/>samples = 1<br/>value = [0, 0, 1, 0, 0]<br/>class = Good>, fillcolor="#39e5c5"] ;
529 -> 531 ;
532 [label=<color_I &le; 0.5<br/>gini = 0.375<br/>samples = 4<br/>value = [0, 0, 1, 0, 3]<br/>class = Fair>, fillcolor="#ee7bd5"] ;
524 -> 532 ;
533 [label=<gini = 0.0<br/>samples = 3<br/>value = [0, 0, 0, 0, 3]<br/>class = Fair>, fillcolor="#e539c0"] ;
532 -> 533 ;
534 [label=<gini = 0.0<br/>samples = 1<br/>value = [0, 0, 1, 0, 0]<br/>class = Good>, fillcolor="#39e5c5"] ;
532 -> 534 ;
535 [label=<gini = 0.0<br/>samples = 2<br/>value = [0, 0, 0, 0, 2]<br/>class = Fair>, fillcolor="#e539c0"] ;
521 -> 535 ;
536 [label=<depth &le; 62.3<br/>gini = 0.337<br/>samples = 14<br/>value = [0, 0, 3, 0, 11]<br/>class = Fair>, fillcolor="#ec6fd1"] ;
494 -> 536 ;
537 [label=<gini = 0.0<br/>samples = 10<br/>value = [0, 0, 0, 0, 10]<br/>class = Fair>, fillcolor="#e539c0"] ;
536 -> 537 ;
538 [label=<depth &le; 62.55<br/>gini = 0.375<br/>samples = 4<br/>value = [0, 0, 3, 0, 1]<br/>class = Good>, fillcolor="#7beed8"] ;
536 -> 538 ;
539 [label=<gini = 0.0<br/>samples = 3<br/>value = [0, 0, 3, 0, 0]<br/>class = Good>, fillcolor="#39e5c5"] ;
538 -> 539 ;
540 [label=<gini = 0.0<br/>samples = 1<br/>value = [0, 0, 0, 0, 1]<br/>class = Fair>, fillcolor="#e539c0"] ;
538 -> 540 ;
541 [label=<price &le; 483.5<br/>gini = 0.346<br/>samples = 36<br/>value = [0, 0, 28, 0, 8]<br/>class = Good>, fillcolor="#72ecd6"] ;
493 -> 541 ;
542 [label=<x &le; 4.215<br/>gini = 0.444<br/>samples = 21<br/>value = [0, 0, 14, 0, 7]<br/>class = Good>, fillcolor="#9cf2e2"] ;
541 -> 542 ;
543 [label=<color_E &le; 0.5<br/>gini = 0.346<br/>samples = 18<br/>value = [0, 0, 14, 0, 4]<br/>class = Good>, fillcolor="#72ecd6"] ;
542 -> 543 ;
544 [label=<depth &le; 62.4<br/>gini = 0.231<br/>samples = 15<br/>value = [0, 0, 13, 0, 2]<br/>class = Good>, fillcolor="#57e9ce"] ;
543 -> 544 ;
545 [label=<color_D &le; 0.5<br/>gini = 0.133<br/>samples = 14<br/>value = [0, 0, 13, 0, 1]<br/>class = Good>, fillcolor="#48e7c9"] ;
544 -> 545 ;
546 [label=<gini = 0.0<br/>samples = 12<br/>value = [0, 0, 12, 0, 0]<br/>class = Good>, fillcolor="#39e5c5"] ;
545 -> 546 ;
547 [label=<depth &le; 61.1<br/>gini = 0.5<br/>samples = 2<br/>value = [0, 0, 1, 0, 1]<br/>class = Good>, fillcolor="#ffffff"] ;
545 -> 547 ;
548 [label=<gini = 0.0<br/>samples = 1<br/>value = [0, 0, 1, 0, 0]<br/>class = Good>, fillcolor="#39e5c5"] ;
547 -> 548 ;
549 [label=<gini = 0.0<br/>samples = 1<br/>value = [0, 0, 0, 0, 1]<br/>class = Fair>, fillcolor="#e539c0"] ;
547 -> 549 ;
550 [label=<gini = 0.0<br/>samples = 1<br/>value = [0, 0, 0, 0, 1]<br/>class = Fair>, fillcolor="#e539c0"] ;
544 -> 550 ;
551 [label=<x &le; 4.13<br/>gini = 0.444<br/>samples = 3<br/>value = [0, 0, 1, 0, 2]<br/>class = Fair>, fillcolor="#f29ce0"] ;
543 -> 551 ;
552 [label=<gini = 0.0<br/>samples = 2<br/>value = [0, 0, 0, 0, 2]<br/>class = Fair>, fillcolor="#e539c0"] ;
551 -> 552 ;
553 [label=<gini = 0.0<br/>samples = 1<br/>value = [0, 0, 1, 0, 0]<br/>class = Good>, fillcolor="#39e5c5"] ;
551 -> 553 ;
554 [label=<gini = 0.0<br/>samples = 3<br/>value = [0, 0, 0, 0, 3]<br/>class = Fair>, fillcolor="#e539c0"] ;
542 -> 554 ;
555 [label=<color_F &le; 0.5<br/>gini = 0.124<br/>samples = 15<br/>value = [0, 0, 14, 0, 1]<br/>class = Good>, fillcolor="#47e7c9"] ;
541 -> 555 ;
556 [label=<gini = 0.0<br/>samples = 12<br/>value = [0, 0, 12, 0, 0]<br/>class = Good>, fillcolor="#39e5c5"] ;
555 -> 556 ;
557 [label=<depth &le; 61.75<br/>gini = 0.444<br/>samples = 3<br/>value = [0, 0, 2, 0, 1]<br/>class = Good>, fillcolor="#9cf2e2"] ;
555 -> 557 ;
558 [label=<gini = 0.0<br/>samples = 2<br/>value = [0, 0, 2, 0, 0]<br/>class = Good>, fillcolor="#39e5c5"] ;
557 -> 558 ;
559 [label=<gini = 0.0<br/>samples = 1<br/>value = [0, 0, 0, 0, 1]<br/>class = Fair>, fillcolor="#e539c0"] ;
557 -> 559 ;
560 [label=<clarity_SI1 &le; 0.5<br/>gini = 0.473<br/>samples = 60<br/>value = [0, 0, 23, 0, 37]<br/>class = Fair>, fillcolor="#f5b4e7"] ;
492 -> 560 ;
561 [label=<price &le; 506.0<br/>gini = 0.44<br/>samples = 52<br/>value = [0, 0, 17, 0, 35]<br/>class = Fair>, fillcolor="#f299df"] ;
560 -> 561 ;
562 [label=<price &le; 389.5<br/>gini = 0.269<br/>samples = 25<br/>value = [0, 0, 4, 0, 21]<br/>class = Fair>, fillcolor="#ea5fcc"] ;
561 -> 562 ;
563 [label=<gini = 0.0<br/>samples = 2<br/>value = [0, 0, 2, 0, 0]<br/>class = Good>, fillcolor="#39e5c5"] ;
562 -> 563 ;
564 [label=<depth &le; 61.6<br/>gini = 0.159<br/>samples = 23<br/>value = [0, 0, 2, 0, 21]<br/>class = Fair>, fillcolor="#e74cc6"] ;
562 -> 564 ;
565 [label=<y &le; 4.215<br/>gini = 0.48<br/>samples = 5<br/>value = [0, 0, 2, 0, 3]<br/>class = Fair>, fillcolor="#f6bdea"] ;
564 -> 565 ;
566 [label=<gini = 0.0<br/>samples = 2<br/>value = [0, 0, 2, 0, 0]<br/>class = Good>, fillcolor="#39e5c5"] ;
565 -> 566 ;
567 [label=<gini = 0.0<br/>samples = 3<br/>value = [0, 0, 0, 0, 3]<br/>class = Fair>, fillcolor="#e539c0"] ;
565 -> 567 ;
568 [label=<gini = 0.0<br/>samples = 18<br/>value = [0, 0, 0, 0, 18]<br/>class = Fair>, fillcolor="#e539c0"] ;
564 -> 568 ;
569 [label=<x &le; 4.025<br/>gini = 0.499<br/>samples = 27<br/>value = [0, 0, 13, 0, 14]<br/>class = Fair>, fillcolor="#fdf1fb"] ;
561 -> 569 ;
570 [label=<gini = 0.0<br/>samples = 5<br/>value = [0, 0, 5, 0, 0]<br/>class = Good>, fillcolor="#39e5c5"] ;
569 -> 570 ;
571 [label=<clarity_VVS1 &le; 0.5<br/>gini = 0.463<br/>samples = 22<br/>value = [0, 0, 8, 0, 14]<br/>class = Fair>, fillcolor="#f4aae4"] ;
569 -> 571 ;
572 [label=<z &le; 2.59<br/>gini = 0.486<br/>samples = 12<br/>value = [0, 0, 7, 0, 5]<br/>class = Good>, fillcolor="#c6f8ee"] ;
571 -> 572 ;
573 [label=<gini = 0.0<br/>samples = 5<br/>value = [0, 0, 5, 0, 0]<br/>class = Good>, fillcolor="#39e5c5"] ;
572 -> 573 ;
574 [label=<clarity_VS2 &le; 0.5<br/>gini = 0.408<br/>samples = 7<br/>value = [0, 0, 2, 0, 5]<br/>class = Fair>, fillcolor="#ef88d9"] ;
572 -> 574 ;
575 [label=<gini = 0.0<br/>samples = 4<br/>value = [0, 0, 0, 0, 4]<br/>class = Fair>, fillcolor="#e539c0"] ;
574 -> 575 ;
576 [label=<price &le; 533.5<br/>gini = 0.444<br/>samples = 3<br/>value = [0, 0, 2, 0, 1]<br/>class = Good>, fillcolor="#9cf2e2"] ;
574 -> 576 ;
577 [label=<gini = 0.0<br/>samples = 2<br/>value = [0, 0, 2, 0, 0]<br/>class = Good>, fillcolor="#39e5c5"] ;
576 -> 577 ;
578 [label=<gini = 0.0<br/>samples = 1<br/>value = [0, 0, 0, 0, 1]<br/>class = Fair>, fillcolor="#e539c0"] ;
576 -> 578 ;
579 [label=<price &le; 523.5<br/>gini = 0.18<br/>samples = 10<br/>value = [0, 0, 1, 0, 9]<br/>class = Fair>, fillcolor="#e84fc7"] ;
571 -> 579 ;
580 [label=<gini = 0.0<br/>samples = 1<br/>value = [0, 0, 1, 0, 0]<br/>class = Good>, fillcolor="#39e5c5"] ;
579 -> 580 ;
581 [label=<gini = 0.0<br/>samples = 9<br/>value = [0, 0, 0, 0, 9]<br/>class = Fair>, fillcolor="#e539c0"] ;
579 -> 581 ;
582 [label=<z &le; 2.68<br/>gini = 0.375<br/>samples = 8<br/>value = [0, 0, 6, 0, 2]<br/>class = Good>, fillcolor="#7beed8"] ;
560 -> 582 ;
583 [label=<price &le; 388.0<br/>gini = 0.245<br/>samples = 7<br/>value = [0, 0, 6, 0, 1]<br/>class = Good>, fillcolor="#5ae9cf"] ;
582 -> 583 ;
584 [label=<x &le; 4.14<br/>gini = 0.5<br/>samples = 2<br/>value = [0, 0, 1, 0, 1]<br/>class = Good>, fillcolor="#ffffff"] ;
583 -> 584 ;
585 [label=<gini = 0.0<br/>samples = 1<br/>value = [0, 0, 1, 0, 0]<br/>class = Good>, fillcolor="#39e5c5"] ;
584 -> 585 ;
586 [label=<gini = 0.0<br/>samples = 1<br/>value = [0, 0, 0, 0, 1]<br/>class = Fair>, fillcolor="#e539c0"] ;
584 -> 586 ;
587 [label=<gini = 0.0<br/>samples = 5<br/>value = [0, 0, 5, 0, 0]<br/>class = Good>, fillcolor="#39e5c5"] ;
583 -> 587 ;
588 [label=<gini = 0.0<br/>samples = 1<br/>value = [0, 0, 0, 0, 1]<br/>class = Fair>, fillcolor="#e539c0"] ;
582 -> 588 ;
589 [label=<price &le; 625.5<br/>gini = 0.413<br/>samples = 152<br/>value = [0, 0, 109, 2, 41]<br/>class = Good>, fillcolor="#86efdb"] ;
485 -> 589 ;
590 [label=<carat &le; 0.245<br/>gini = 0.224<br/>samples = 72<br/>value = [0, 0, 63, 2, 7]<br/>class = Good>, fillcolor="#54e9cd"] ;
589 -> 590 ;
591 [label=<gini = 0.0<br/>samples = 1<br/>value = [0, 0, 0, 0, 1]<br/>class = Fair>, fillcolor="#e539c0"] ;
590 -> 591 ;
592 [label=<table &le; 55.5<br/>gini = 0.205<br/>samples = 71<br/>value = [0, 0, 63, 2, 6]<br/>class = Good>, fillcolor="#51e8cc"] ;
590 -> 592 ;
593 [label=<clarity_VS2 &le; 0.5<br/>gini = 0.415<br/>samples = 17<br/>value = [0, 0, 12, 0, 5]<br/>class = Good>, fillcolor="#8bf0dd"] ;
592 -> 593 ;
594 [label=<color_H &le; 0.5<br/>gini = 0.496<br/>samples = 11<br/>value = [0, 0, 6, 0, 5]<br/>class = Good>, fillcolor="#defbf5"] ;
593 -> 594 ;
595 [label=<x &le; 4.065<br/>gini = 0.408<br/>samples = 7<br/>value = [0, 0, 2, 0, 5]<br/>class = Fair>, fillcolor="#ef88d9"] ;
594 -> 595 ;
596 [label=<gini = 0.0<br/>samples = 1<br/>value = [0, 0, 1, 0, 0]<br/>class = Good>, fillcolor="#39e5c5"] ;
595 -> 596 ;
597 [label=<z &le; 2.605<br/>gini = 0.278<br/>samples = 6<br/>value = [0, 0, 1, 0, 5]<br/>class = Fair>, fillcolor="#ea61cd"] ;
595 -> 597 ;
598 [label=<gini = 0.0<br/>samples = 4<br/>value = [0, 0, 0, 0, 4]<br/>class = Fair>, fillcolor="#e539c0"] ;
597 -> 598 ;
599 [label=<clarity_VVS2 &le; 0.5<br/>gini = 0.5<br/>samples = 2<br/>value = [0, 0, 1, 0, 1]<br/>class = Good>, fillcolor="#ffffff"] ;
597 -> 599 ;
600 [label=<gini = 0.0<br/>samples = 1<br/>value = [0, 0, 0, 0, 1]<br/>class = Fair>, fillcolor="#e539c0"] ;
599 -> 600 ;
601 [label=<gini = 0.0<br/>samples = 1<br/>value = [0, 0, 1, 0, 0]<br/>class = Good>, fillcolor="#39e5c5"] ;
599 -> 601 ;
602 [label=<gini = 0.0<br/>samples = 4<br/>value = [0, 0, 4, 0, 0]<br/>class = Good>, fillcolor="#39e5c5"] ;
594 -> 602 ;
603 [label=<gini = 0.0<br/>samples = 6<br/>value = [0, 0, 6, 0, 0]<br/>class = Good>, fillcolor="#39e5c5"] ;
593 -> 603 ;
604 [label=<clarity_VS2 &le; 0.5<br/>gini = 0.106<br/>samples = 54<br/>value = [0, 0, 51, 2, 1]<br/>class = Good>, fillcolor="#44e6c8"] ;
592 -> 604 ;
605 [label=<y &le; 4.26<br/>gini = 0.048<br/>samples = 41<br/>value = [0, 0, 40, 0, 1]<br/>class = Good>, fillcolor="#3ee6c6"] ;
604 -> 605 ;
606 [label=<gini = 0.0<br/>samples = 37<br/>value = [0, 0, 37, 0, 0]<br/>class = Good>, fillcolor="#39e5c5"] ;
605 -> 606 ;
607 [label=<y &le; 4.28<br/>gini = 0.375<br/>samples = 4<br/>value = [0, 0, 3, 0, 1]<br/>class = Good>, fillcolor="#7beed8"] ;
605 -> 607 ;
608 [label=<gini = 0.0<br/>samples = 1<br/>value = [0, 0, 0, 0, 1]<br/>class = Fair>, fillcolor="#e539c0"] ;
607 -> 608 ;
609 [label=<gini = 0.0<br/>samples = 3<br/>value = [0, 0, 3, 0, 0]<br/>class = Good>, fillcolor="#39e5c5"] ;
607 -> 609 ;
610 [label=<y &le; 4.135<br/>gini = 0.26<br/>samples = 13<br/>value = [0, 0, 11, 2, 0]<br/>class = Good>, fillcolor="#5dead0"] ;
604 -> 610 ;
611 [label=<gini = 0.0<br/>samples = 2<br/>value = [0, 0, 0, 2, 0]<br/>class = Very Good>, fillcolor="#3c39e5"] ;
610 -> 611 ;
612 [label=<gini = 0.0<br/>samples = 11<br/>value = [0, 0, 11, 0, 0]<br/>class = Good>, fillcolor="#39e5c5"] ;
610 -> 612 ;
613 [label=<price &le; 634.0<br/>gini = 0.489<br/>samples = 80<br/>value = [0, 0, 46, 0, 34]<br/>class = Good>, fillcolor="#cbf8f0"] ;
589 -> 613 ;
614 [label=<color_G &le; 0.5<br/>gini = 0.32<br/>samples = 10<br/>value = [0, 0, 2, 0, 8]<br/>class = Fair>, fillcolor="#ec6ad0"] ;
613 -> 614 ;
615 [label=<gini = 0.0<br/>samples = 8<br/>value = [0, 0, 0, 0, 8]<br/>class = Fair>, fillcolor="#e539c0"] ;
614 -> 615 ;
616 [label=<gini = 0.0<br/>samples = 2<br/>value = [0, 0, 2, 0, 0]<br/>class = Good>, fillcolor="#39e5c5"] ;
614 -> 616 ;
617 [label=<price &le; 680.0<br/>gini = 0.467<br/>samples = 70<br/>value = [0, 0, 44, 0, 26]<br/>class = Good>, fillcolor="#aef4e7"] ;
613 -> 617 ;
618 [label=<clarity_VS2 &le; 0.5<br/>gini = 0.364<br/>samples = 46<br/>value = [0, 0, 35, 0, 11]<br/>class = Good>, fillcolor="#77edd7"] ;
617 -> 618 ;
619 [label=<depth &le; 62.55<br/>gini = 0.266<br/>samples = 38<br/>value = [0, 0, 32, 0, 6]<br/>class = Good>, fillcolor="#5eead0"] ;
618 -> 619 ;
620 [label=<clarity_SI1 &le; 0.5<br/>gini = 0.202<br/>samples = 35<br/>value = [0, 0, 31, 0, 4]<br/>class = Good>, fillcolor="#53e8cc"] ;
619 -> 620 ;
621 [label=<price &le; 652.5<br/>gini = 0.161<br/>samples = 34<br/>value = [0, 0, 31, 0, 3]<br/>class = Good>, fillcolor="#4ce8cb"] ;
620 -> 621 ;
622 [label=<gini = 0.0<br/>samples = 14<br/>value = [0, 0, 14, 0, 0]<br/>class = Good>, fillcolor="#39e5c5"] ;
621 -> 622 ;
623 [label=<price &le; 668.0<br/>gini = 0.255<br/>samples = 20<br/>value = [0, 0, 17, 0, 3]<br/>class = Good>, fillcolor="#5ceacf"] ;
621 -> 623 ;
624 [label=<depth &le; 61.35<br/>gini = 0.42<br/>samples = 10<br/>value = [0, 0, 7, 0, 3]<br/>class = Good>, fillcolor="#8ef0de"] ;
623 -> 624 ;
625 [label=<gini = 0.0<br/>samples = 1<br/>value = [0, 0, 0, 0, 1]<br/>class = Fair>, fillcolor="#e539c0"] ;
624 -> 625 ;
626 [label=<price &le; 658.0<br/>gini = 0.346<br/>samples = 9<br/>value = [0, 0, 7, 0, 2]<br/>class = Good>, fillcolor="#72ecd6"] ;
624 -> 626 ;
627 [label=<y &le; 4.125<br/>gini = 0.48<br/>samples = 5<br/>value = [0, 0, 3, 0, 2]<br/>class = Good>, fillcolor="#bdf6ec"] ;
626 -> 627 ;
628 [label=<gini = 0.0<br/>samples = 2<br/>value = [0, 0, 2, 0, 0]<br/>class = Good>, fillcolor="#39e5c5"] ;
627 -> 628 ;
629 [label=<y &le; 4.29<br/>gini = 0.444<br/>samples = 3<br/>value = [0, 0, 1, 0, 2]<br/>class = Fair>, fillcolor="#f29ce0"] ;
627 -> 629 ;
630 [label=<gini = 0.0<br/>samples = 2<br/>value = [0, 0, 0, 0, 2]<br/>class = Fair>, fillcolor="#e539c0"] ;
629 -> 630 ;
631 [label=<gini = 0.0<br/>samples = 1<br/>value = [0, 0, 1, 0, 0]<br/>class = Good>, fillcolor="#39e5c5"] ;
629 -> 631 ;
632 [label=<gini = 0.0<br/>samples = 4<br/>value = [0, 0, 4, 0, 0]<br/>class = Good>, fillcolor="#39e5c5"] ;
626 -> 632 ;
633 [label=<gini = 0.0<br/>samples = 10<br/>value = [0, 0, 10, 0, 0]<br/>class = Good>, fillcolor="#39e5c5"] ;
623 -> 633 ;
634 [label=<gini = 0.0<br/>samples = 1<br/>value = [0, 0, 0, 0, 1]<br/>class = Fair>, fillcolor="#e539c0"] ;
620 -> 634 ;
635 [label=<y &le; 4.105<br/>gini = 0.444<br/>samples = 3<br/>value = [0, 0, 1, 0, 2]<br/>class = Fair>, fillcolor="#f29ce0"] ;
619 -> 635 ;
636 [label=<gini = 0.0<br/>samples = 1<br/>value = [0, 0, 1, 0, 0]<br/>class = Good>, fillcolor="#39e5c5"] ;
635 -> 636 ;
637 [label=<gini = 0.0<br/>samples = 2<br/>value = [0, 0, 0, 0, 2]<br/>class = Fair>, fillcolor="#e539c0"] ;
635 -> 637 ;
638 [label=<depth &le; 62.2<br/>gini = 0.469<br/>samples = 8<br/>value = [0, 0, 3, 0, 5]<br/>class = Fair>, fillcolor="#f5b0e6"] ;
618 -> 638 ;
639 [label=<gini = 0.0<br/>samples = 3<br/>value = [0, 0, 3, 0, 0]<br/>class = Good>, fillcolor="#39e5c5"] ;
638 -> 639 ;
640 [label=<gini = 0.0<br/>samples = 5<br/>value = [0, 0, 0, 0, 5]<br/>class = Fair>, fillcolor="#e539c0"] ;
638 -> 640 ;
641 [label=<z &le; 2.53<br/>gini = 0.469<br/>samples = 24<br/>value = [0, 0, 9, 0, 15]<br/>class = Fair>, fillcolor="#f5b0e6"] ;
617 -> 641 ;
642 [label=<gini = 0.0<br/>samples = 4<br/>value = [0, 0, 4, 0, 0]<br/>class = Good>, fillcolor="#39e5c5"] ;
641 -> 642 ;
643 [label=<y &le; 4.28<br/>gini = 0.375<br/>samples = 20<br/>value = [0, 0, 5, 0, 15]<br/>class = Fair>, fillcolor="#ee7bd5"] ;
641 -> 643 ;
644 [label=<gini = 0.0<br/>samples = 12<br/>value = [0, 0, 0, 0, 12]<br/>class = Fair>, fillcolor="#e539c0"] ;
643 -> 644 ;
645 [label=<y &le; 4.305<br/>gini = 0.469<br/>samples = 8<br/>value = [0, 0, 5, 0, 3]<br/>class = Good>, fillcolor="#b0f5e8"] ;
643 -> 645 ;
646 [label=<gini = 0.0<br/>samples = 5<br/>value = [0, 0, 5, 0, 0]<br/>class = Good>, fillcolor="#39e5c5"] ;
645 -> 646 ;
647 [label=<gini = 0.0<br/>samples = 3<br/>value = [0, 0, 0, 0, 3]<br/>class = Fair>, fillcolor="#e539c0"] ;
645 -> 647 ;
648 [label=<price &le; 430.5<br/>gini = 0.27<br/>samples = 107<br/>value = [0, 1, 90, 0, 16]<br/>class = Good>, fillcolor="#5eead0"] ;
484 -> 648 ;
649 [label=<color_I &le; 0.5<br/>gini = 0.531<br/>samples = 8<br/>value = [0, 1, 2, 0, 5]<br/>class = Fair>, fillcolor="#f29ce0"] ;
648 -> 649 ;
650 [label=<color_F &le; 0.5<br/>gini = 0.278<br/>samples = 6<br/>value = [0, 1, 0, 0, 5]<br/>class = Fair>, fillcolor="#ea61cd"] ;
649 -> 650 ;
651 [label=<gini = 0.0<br/>samples = 5<br/>value = [0, 0, 0, 0, 5]<br/>class = Fair>, fillcolor="#e539c0"] ;
650 -> 651 ;
652 [label=<gini = 0.0<br/>samples = 1<br/>value = [0, 1, 0, 0, 0]<br/>class = Premium>, fillcolor="#7be539"] ;
650 -> 652 ;
653 [label=<gini = 0.0<br/>samples = 2<br/>value = [0, 0, 2, 0, 0]<br/>class = Good>, fillcolor="#39e5c5"] ;
649 -> 653 ;
654 [label=<y &le; 4.315<br/>gini = 0.198<br/>samples = 99<br/>value = [0, 0, 88, 0, 11]<br/>class = Good>, fillcolor="#52e8cc"] ;
648 -> 654 ;
655 [label=<table &le; 52.5<br/>gini = 0.183<br/>samples = 98<br/>value = [0, 0, 88, 0, 10]<br/>class = Good>, fillcolor="#50e8cc"] ;
654 -> 655 ;
656 [label=<gini = 0.0<br/>samples = 1<br/>value = [0, 0, 0, 0, 1]<br/>class = Fair>, fillcolor="#e539c0"] ;
655 -> 656 ;
657 [label=<depth &le; 61.1<br/>gini = 0.168<br/>samples = 97<br/>value = [0, 0, 88, 0, 9]<br/>class = Good>, fillcolor="#4de8cb"] ;
655 -> 657 ;
658 [label=<z &le; 2.53<br/>gini = 0.48<br/>samples = 5<br/>value = [0, 0, 3, 0, 2]<br/>class = Good>, fillcolor="#bdf6ec"] ;
657 -> 658 ;
659 [label=<gini = 0.0<br/>samples = 2<br/>value = [0, 0, 2, 0, 0]<br/>class = Good>, fillcolor="#39e5c5"] ;
658 -> 659 ;
660 [label=<price &le; 547.5<br/>gini = 0.444<br/>samples = 3<br/>value = [0, 0, 1, 0, 2]<br/>class = Fair>, fillcolor="#f29ce0"] ;
658 -> 660 ;
661 [label=<gini = 0.0<br/>samples = 2<br/>value = [0, 0, 0, 0, 2]<br/>class = Fair>, fillcolor="#e539c0"] ;
660 -> 661 ;
662 [label=<gini = 0.0<br/>samples = 1<br/>value = [0, 0, 1, 0, 0]<br/>class = Good>, fillcolor="#39e5c5"] ;
660 -> 662 ;
663 [label=<table &le; 55.5<br/>gini = 0.141<br/>samples = 92<br/>value = [0, 0, 85, 0, 7]<br/>class = Good>, fillcolor="#49e7ca"] ;
657 -> 663 ;
664 [label=<gini = 0.0<br/>samples = 43<br/>value = [0, 0, 43, 0, 0]<br/>class = Good>, fillcolor="#39e5c5"] ;
663 -> 664 ;
665 [label=<depth &le; 61.85<br/>gini = 0.245<br/>samples = 49<br/>value = [0, 0, 42, 0, 7]<br/>class = Good>, fillcolor="#5ae9cf"] ;
663 -> 665 ;
666 [label=<gini = 0.0<br/>samples = 23<br/>value = [0, 0, 23, 0, 0]<br/>class = Good>, fillcolor="#39e5c5"] ;
665 -> 666 ;
667 [label=<depth &le; 61.95<br/>gini = 0.393<br/>samples = 26<br/>value = [0, 0, 19, 0, 7]<br/>class = Good>, fillcolor="#82efda"] ;
665 -> 667 ;
668 [label=<gini = 0.0<br/>samples = 3<br/>value = [0, 0, 0, 0, 3]<br/>class = Fair>, fillcolor="#e539c0"] ;
667 -> 668 ;
669 [label=<price &le; 522.0<br/>gini = 0.287<br/>samples = 23<br/>value = [0, 0, 19, 0, 4]<br/>class = Good>, fillcolor="#63ead1"] ;
667 -> 669 ;
670 [label=<z &le; 2.595<br/>gini = 0.426<br/>samples = 13<br/>value = [0, 0, 9, 0, 4]<br/>class = Good>, fillcolor="#91f1df"] ;
669 -> 670 ;
671 [label=<gini = 0.0<br/>samples = 6<br/>value = [0, 0, 6, 0, 0]<br/>class = Good>, fillcolor="#39e5c5"] ;
670 -> 671 ;
672 [label=<x &le; 4.255<br/>gini = 0.49<br/>samples = 7<br/>value = [0, 0, 3, 0, 4]<br/>class = Fair>, fillcolor="#f8ceef"] ;
670 -> 672 ;
673 [label=<depth &le; 62.05<br/>gini = 0.32<br/>samples = 5<br/>value = [0, 0, 1, 0, 4]<br/>class = Fair>, fillcolor="#ec6ad0"] ;
672 -> 673 ;
674 [label=<gini = 0.0<br/>samples = 1<br/>value = [0, 0, 1, 0, 0]<br/>class = Good>, fillcolor="#39e5c5"] ;
673 -> 674 ;
675 [label=<gini = 0.0<br/>samples = 4<br/>value = [0, 0, 0, 0, 4]<br/>class = Fair>, fillcolor="#e539c0"] ;
673 -> 675 ;
676 [label=<gini = 0.0<br/>samples = 2<br/>value = [0, 0, 2, 0, 0]<br/>class = Good>, fillcolor="#39e5c5"] ;
672 -> 676 ;
677 [label=<gini = 0.0<br/>samples = 10<br/>value = [0, 0, 10, 0, 0]<br/>class = Good>, fillcolor="#39e5c5"] ;
669 -> 677 ;
678 [label=<gini = 0.0<br/>samples = 1<br/>value = [0, 0, 0, 0, 1]<br/>class = Fair>, fillcolor="#e539c0"] ;
654 -> 678 ;
679 [label=<z &le; 2.655<br/>gini = 0.137<br/>samples = 81<br/>value = [0, 0, 75, 0, 6]<br/>class = Good>, fillcolor="#49e7ca"] ;
437 -> 679 ;
680 [label=<gini = 0.0<br/>samples = 57<br/>value = [0, 0, 57, 0, 0]<br/>class = Good>, fillcolor="#39e5c5"] ;
679 -> 680 ;
681 [label=<y &le; 4.275<br/>gini = 0.375<br/>samples = 24<br/>value = [0, 0, 18, 0, 6]<br/>class = Good>, fillcolor="#7beed8"] ;
679 -> 681 ;
682 [label=<gini = 0.0<br/>samples = 1<br/>value = [0, 0, 0, 0, 1]<br/>class = Fair>, fillcolor="#e539c0"] ;
681 -> 682 ;
683 [label=<z &le; 2.675<br/>gini = 0.34<br/>samples = 23<br/>value = [0, 0, 18, 0, 5]<br/>class = Good>, fillcolor="#70ecd5"] ;
681 -> 683 ;
684 [label=<price &le; 758.5<br/>gini = 0.266<br/>samples = 19<br/>value = [0, 0, 16, 0, 3]<br/>class = Good>, fillcolor="#5eead0"] ;
683 -> 684 ;
685 [label=<depth &le; 62.35<br/>gini = 0.5<br/>samples = 2<br/>value = [0, 0, 1, 0, 1]<br/>class = Good>, fillcolor="#ffffff"] ;
684 -> 685 ;
686 [label=<gini = 0.0<br/>samples = 1<br/>value = [0, 0, 1, 0, 0]<br/>class = Good>, fillcolor="#39e5c5"] ;
685 -> 686 ;
687 [label=<gini = 0.0<br/>samples = 1<br/>value = [0, 0, 0, 0, 1]<br/>class = Fair>, fillcolor="#e539c0"] ;
685 -> 687 ;
688 [label=<y &le; 4.295<br/>gini = 0.208<br/>samples = 17<br/>value = [0, 0, 15, 0, 2]<br/>class = Good>, fillcolor="#53e8cd"] ;
684 -> 688 ;
689 [label=<gini = 0.0<br/>samples = 10<br/>value = [0, 0, 10, 0, 0]<br/>class = Good>, fillcolor="#39e5c5"] ;
688 -> 689 ;
690 [label=<x &le; 4.265<br/>gini = 0.408<br/>samples = 7<br/>value = [0, 0, 5, 0, 2]<br/>class = Good>, fillcolor="#88efdc"] ;
688 -> 690 ;
691 [label=<gini = 0.0<br/>samples = 1<br/>value = [0, 0, 0, 0, 1]<br/>class = Fair>, fillcolor="#e539c0"] ;
690 -> 691 ;
692 [label=<color_E &le; 0.5<br/>gini = 0.278<br/>samples = 6<br/>value = [0, 0, 5, 0, 1]<br/>class = Good>, fillcolor="#61ead1"] ;
690 -> 692 ;
693 [label=<gini = 0.0<br/>samples = 3<br/>value = [0, 0, 3, 0, 0]<br/>class = Good>, fillcolor="#39e5c5"] ;
692 -> 693 ;
694 [label=<price &le; 889.0<br/>gini = 0.444<br/>samples = 3<br/>value = [0, 0, 2, 0, 1]<br/>class = Good>, fillcolor="#9cf2e2"] ;
692 -> 694 ;
695 [label=<gini = 0.5<br/>samples = 2<br/>value = [0, 0, 1, 0, 1]<br/>class = Good>, fillcolor="#ffffff"] ;
694 -> 695 ;
696 [label=<gini = 0.0<br/>samples = 1<br/>value = [0, 0, 1, 0, 0]<br/>class = Good>, fillcolor="#39e5c5"] ;
694 -> 696 ;
697 [label=<y &le; 4.295<br/>gini = 0.5<br/>samples = 4<br/>value = [0, 0, 2, 0, 2]<br/>class = Good>, fillcolor="#ffffff"] ;
683 -> 697 ;
698 [label=<gini = 0.0<br/>samples = 2<br/>value = [0, 0, 0, 0, 2]<br/>class = Fair>, fillcolor="#e539c0"] ;
697 -> 698 ;
699 [label=<gini = 0.0<br/>samples = 2<br/>value = [0, 0, 2, 0, 0]<br/>class = Good>, fillcolor="#39e5c5"] ;
697 -> 699 ;
700 [label=<table &le; 56.25<br/>gini = 0.211<br/>samples = 8342<br/>value = [2, 7, 7373, 269, 691]<br/>class = Good>, fillcolor="#52e8cc"] ;
436 -> 700 ;
701 [label=<depth &le; 60.85<br/>gini = 0.183<br/>samples = 6146<br/>value = [0, 6, 5535, 149, 456]<br/>class = Good>, fillcolor="#4ee8cb"] ;
700 -> 701 ;
702 [label=<price &le; 2377.5<br/>gini = 0.333<br/>samples = 411<br/>value = [0, 3, 329, 14, 65]<br/>class = Good>, fillcolor="#68ebd3"] ;
701 -> 702 ;
703 [label=<y &le; 4.815<br/>gini = 0.322<br/>samples = 403<br/>value = [0, 3, 326, 14, 60]<br/>class = Good>, fillcolor="#65ebd2"] ;
702 -> 703 ;
704 [label=<price &le; 434.0<br/>gini = 0.265<br/>samples = 220<br/>value = [0, 1, 187, 9, 23]<br/>class = Good>, fillcolor="#5ae9cf"] ;
703 -> 704 ;
705 [label=<price &le; 406.0<br/>gini = 0.444<br/>samples = 3<br/>value = [0, 0, 1, 0, 2]<br/>class = Fair>, fillcolor="#f29ce0"] ;
704 -> 705 ;
706 [label=<gini = 0.0<br/>samples = 1<br/>value = [0, 0, 1, 0, 0]<br/>class = Good>, fillcolor="#39e5c5"] ;
705 -> 706 ;
707 [label=<gini = 0.0<br/>samples = 2<br/>value = [0, 0, 0, 0, 2]<br/>class = Fair>, fillcolor="#e539c0"] ;
705 -> 707 ;
708 [label=<table &le; 55.5<br/>gini = 0.254<br/>samples = 217<br/>value = [0, 1, 186, 9, 21]<br/>class = Good>, fillcolor="#58e9ce"] ;
704 -> 708 ;
709 [label=<y &le; 4.435<br/>gini = 0.417<br/>samples = 54<br/>value = [0, 0, 40, 6, 8]<br/>class = Good>, fillcolor="#75edd7"] ;
708 -> 709 ;
710 [label=<price &le; 881.5<br/>gini = 0.609<br/>samples = 17<br/>value = [0, 0, 9, 4, 4]<br/>class = Good>, fillcolor="#b3f5e9"] ;
709 -> 710 ;
711 [label=<clarity_VVS2 &le; 0.5<br/>gini = 0.5<br/>samples = 14<br/>value = [0, 0, 9, 1, 4]<br/>class = Good>, fillcolor="#9cf2e2"] ;
710 -> 711 ;
712 [label=<depth &le; 60.2<br/>gini = 0.403<br/>samples = 12<br/>value = [0, 0, 9, 1, 2]<br/>class = Good>, fillcolor="#74edd6"] ;
711 -> 712 ;
713 [label=<color_H &le; 0.5<br/>gini = 0.5<br/>samples = 2<br/>value = [0, 0, 0, 1, 1]<br/>class = Very Good>, fillcolor="#ffffff"] ;
712 -> 713 ;
714 [label=<gini = 0.0<br/>samples = 1<br/>value = [0, 0, 0, 0, 1]<br/>class = Fair>, fillcolor="#e539c0"] ;
713 -> 714 ;
715 [label=<gini = 0.0<br/>samples = 1<br/>value = [0, 0, 0, 1, 0]<br/>class = Very Good>, fillcolor="#3c39e5"] ;
713 -> 715 ;
716 [label=<color_F &le; 0.5<br/>gini = 0.18<br/>samples = 10<br/>value = [0, 0, 9, 0, 1]<br/>class = Good>, fillcolor="#4fe8cb"] ;
712 -> 716 ;
717 [label=<gini = 0.0<br/>samples = 8<br/>value = [0, 0, 8, 0, 0]<br/>class = Good>, fillcolor="#39e5c5"] ;
716 -> 717 ;
718 [label=<clarity_VS1 &le; 0.5<br/>gini = 0.5<br/>samples = 2<br/>value = [0, 0, 1, 0, 1]<br/>class = Good>, fillcolor="#ffffff"] ;
716 -> 718 ;
719 [label=<gini = 0.0<br/>samples = 1<br/>value = [0, 0, 1, 0, 0]<br/>class = Good>, fillcolor="#39e5c5"] ;
718 -> 719 ;
720 [label=<gini = 0.0<br/>samples = 1<br/>value = [0, 0, 0, 0, 1]<br/>class = Fair>, fillcolor="#e539c0"] ;
718 -> 720 ;
721 [label=<gini = 0.0<br/>samples = 2<br/>value = [0, 0, 0, 0, 2]<br/>class = Fair>, fillcolor="#e539c0"] ;
711 -> 721 ;
722 [label=<gini = 0.0<br/>samples = 3<br/>value = [0, 0, 0, 3, 0]<br/>class = Very Good>, fillcolor="#3c39e5"] ;
710 -> 722 ;
723 [label=<z &le; 2.81<br/>gini = 0.283<br/>samples = 37<br/>value = [0, 0, 31, 2, 4]<br/>class = Good>, fillcolor="#5dead0"] ;
709 -> 723 ;
724 [label=<price &le; 617.0<br/>gini = 0.08<br/>samples = 24<br/>value = [0, 0, 23, 0, 1]<br/>class = Good>, fillcolor="#42e6c8"] ;
723 -> 724 ;
725 [label=<color_G &le; 0.5<br/>gini = 0.5<br/>samples = 2<br/>value = [0, 0, 1, 0, 1]<br/>class = Good>, fillcolor="#ffffff"] ;
724 -> 725 ;
726 [label=<gini = 0.0<br/>samples = 1<br/>value = [0, 0, 1, 0, 0]<br/>class = Good>, fillcolor="#39e5c5"] ;
725 -> 726 ;
727 [label=<gini = 0.0<br/>samples = 1<br/>value = [0, 0, 0, 0, 1]<br/>class = Fair>, fillcolor="#e539c0"] ;
725 -> 727 ;
728 [label=<gini = 0.0<br/>samples = 22<br/>value = [0, 0, 22, 0, 0]<br/>class = Good>, fillcolor="#39e5c5"] ;
724 -> 728 ;
729 [label=<y &le; 4.685<br/>gini = 0.544<br/>samples = 13<br/>value = [0, 0, 8, 2, 3]<br/>class = Good>, fillcolor="#9cf2e2"] ;
723 -> 729 ;
730 [label=<x &le; 4.66<br/>gini = 0.444<br/>samples = 3<br/>value = [0, 0, 0, 2, 1]<br/>class = Very Good>, fillcolor="#9e9cf2"] ;
729 -> 730 ;
731 [label=<gini = 0.0<br/>samples = 1<br/>value = [0, 0, 0, 0, 1]<br/>class = Fair>, fillcolor="#e539c0"] ;
730 -> 731 ;
